{"learner":{"attributes":{"scikit_learn":"{\"_estimator_type\": \"classifier\"}"},"feature_names":[],"feature_types":[],"gradient_booster":{"model":{"cats":{"enc":[],"feature_segments":[],"sorted_idx":[]},"gbtree_model_param":{"num_parallel_tree":"1","num_trees":"41"},"iteration_indptr":[0,1,2,3,4,5,6,7,8,9,10,11,12,13,14,15,16,17,18,19,20,21,22,23,24,25,26,27,28,29,30,31,32,33,34,35,36,37,38,39,40,41],"tree_info":[0,0,0,0,0,0,0,0,0,0,0,0,0,0,0,0,0,0,0,0,0,0,0,0,0,0,0,0,0,0,0,0,0,0,0,0,0,0,0,0,0],"trees":[{"base_weights":[5.4207174E-3,-5.4060763E-1,2.057546E-1,-3.4983337E-1,-9.327549E-1,-6.61031E-1,3.071723E-1,-6.022529E-2,-2.7843866E-1,-1.0766313E0,-5.465284E-1,7.352264E-1,-7.869222E-1,4.9658328E-1,-2.2693259E-1,-2.0758001E-2,5.219738E-3,-7.2916658E-3,-5.757537E-2,-3.882441E-2,3.5949808E-3,-7.4035446E-3,5.6092363E-2,-2.8077066E-2,-6.7463845E-2,2.8018517E-2,-1.0891798E-2,-3.4465697E-2,-1.3271736E-3],"categories":[],"categories_nodes":[],"categories_segments":[],"categories_sizes":[],"default_left":[0,0,0,0,0,0,0,0,0,0,0,0,0,0,0,0,0,0,0,0,0,0,0,0,0,0,0,0,0],"id":0,"left_children":[1,3,5,7,9,11,13,-1,15,17,19,21,23,25,27,-1,-1,-1,-1,-1,-1,-1,-1,-1,-1,-1,-1,-1,-1],"loss_changes":[7.2503494E1,1.298344E1,4.2827904E1,7.0653334E0,2.6137466E0,9.562151E0,4.4096893E1,0E0,5.970254E0,2.6863327E0,2.568902E0,1.7861714E0,5.2454376E0,1.4762489E1,1.0591511E1,0E0,0E0,0E0,0E0,0E0,0E0,0E0,0E0,0E0,0E0,0E0,0E0,0E0,0E0],"parents":[2147483647,0,0,1,1,2,2,3,3,4,4,5,5,6,6,8,8,9,9,10,10,11,11,12,12,13,13,14,14],"right_children":[2,4,6,8,10,12,14,-1,16,18,20,22,24,26,28,-1,-1,-1,-1,-1,-1,-1,-1,-1,-1,-1,-1,-1,-1],"split_conditions":[7.6462395E-2,4E0,4.3E-1,4.2E-1,6.665327E-2,1E0,5.3E-1,-6.022529E-2,1.9E1,2E0,2.0523E2,0E0,1.6367632E-1,1.9286019E-1,4.1E-1,-2.0758001E-2,5.219738E-3,-7.2916658E-3,-5.757537E-2,-3.882441E-2,3.5949808E-3,-7.4035446E-3,5.6092363E-2,-2.8077066E-2,-6.7463845E-2,2.8018517E-2,-1.0891798E-2,-3.4465697E-2,-1.3271736E-3],"split_indices":[8,11,0,0,8,11,0,0,10,10,4,7,8,8,1,0,0,0,0,0,0,0,0,0,0,0,0,0,0],"split_type":[0,0,0,0,0,0,0,0,0,0,0,0,0,0,0,0,0,0,0,0,0,0,0,0,0,0,0,0,0],"sum_hessian":[6.607937E2,1.769102E2,4.838835E2,1.20285194E2,5.6625E1,5.010801E1,4.3377548E2,8.049757E0,1.12235435E2,3.9953884E1,1.6671116E1,3.743932E0,4.636408E1,3.2026822E2,1.13507286E2,8.263835E1,2.9597088E1,3.1941748E0,3.675971E1,1.196602E1,4.705097E0,1.3276699E0,2.4162621E0,3.4525486E1,1.1838593E1,2.942148E2,2.6053398E1,3.358131E1,7.992597E1],"tree_param":{"num_deleted":"0","num_feature":"12","num_nodes":"29","size_leaf_vector":"1"}},{"base_weights":[2.0865405E-3,-8.9819217E-1,7.389864E-2,-1.1534382E0,1.056736E0,-4.6411648E-1,1.6856478E-1,-1.3007993E0,-4.8605773E-1,1.3242473E-1,7.588541E-2,6.386292E-1,-9.015608E-1,3.5552496E-1,8.823267E-2,-4.136606E-3,-6.831117E-2,-4.7917377E-2,-8.055124E-3,-2.1233005E-2,3.0320982E-2,4.2878624E-2,-3.1651247E-2,-2.5613865E-2,-6.585448E-2,1.3886723E-3,2.0570617E-2,2.2747993E-2,1.4690332E-3],"categories":[],"categories_nodes":[],"categories_segments":[],"categories_sizes":[],"default_left":[0,0,0,0,0,0,0,0,0,0,0,0,0,0,0,0,0,0,0,0,0,0,0,0,0,0,0,0,0],"id":1,"left_children":[1,3,5,7,9,11,13,15,17,19,-1,21,23,25,27,-1,-1,-1,-1,-1,-1,-1,-1,-1,-1,-1,-1,-1,-1],"loss_changes":[4.2916954E1,2.5689018E1,3.1389061E1,3.680626E0,2.4344625E0,4.5076717E1,7.8311596E0,2.702114E0,1.307966E0,1.0903102E0,0E0,8.000755E0,1.00764885E1,2.8644695E0,7.918324E0,0E0,0E0,0E0,0E0,0E0,0E0,0E0,0E0,0E0,0E0,0E0,0E0,0E0,0E0],"parents":[2147483647,0,0,1,1,2,2,3,3,4,4,5,5,6,6,7,7,8,8,9,9,11,11,12,12,13,13,14,14],"right_children":[2,4,6,8,10,12,14,16,18,20,-1,22,24,26,28,-1,-1,-1,-1,-1,-1,-1,-1,-1,-1,-1,-1,-1,-1],"split_conditions":[4.1E-1,5.0928076E-3,4.5E-1,1.5994312E-3,3.5E-1,-1.9991628E-3,-1.9632414E-1,1E0,2.958E2,6.397407E-3,7.588541E-2,6.5E-1,1.9992667E-3,1E0,3.597E1,-4.136606E-3,-6.831117E-2,-4.7917377E-2,-8.055124E-3,-2.1233005E-2,3.0320982E-2,4.2878624E-2,-3.1651247E-2,-2.5613865E-2,-6.585448E-2,1.3886723E-3,2.0570617E-2,2.2747993E-2,1.4690332E-3],"split_indices":[0,6,1,6,0,6,5,11,9,6,0,0,6,11,4,0,0,0,0,0,0,0,0,0,0,0,0,0,0],"split_type":[0,0,0,0,0,0,0,0,0,0,0,0,0,0,0,0,0,0,0,0,0,0,0,0,0,0,0,0,0],"sum_hessian":[6.617994E2,4.803957E1,6.1375977E2,4.2854267E1,5.1853013E0,9.125103E1,5.225088E2,3.4325832E1,8.528436E0,2.1538386E0,3.0314627E0,2.5786467E1,6.546456E1,1.5600537E2,3.665034E2,1.8651406E0,3.2460693E1,2.6816945E0,5.846741E0,1.037983E0,1.1158556E0,2.227667E1,3.5097947E0,3.4952522E1,3.051204E1,2.2944471E1,1.330609E2,4.9751854E1,3.1675153E2],"tree_param":{"num_deleted":"0","num_feature":"12","num_nodes":"29","size_leaf_vector":"1"}},{"base_weights":[-2.7174685E-2,-4.9041465E-1,1.5147124E-1,-1.1756709E0,-4.3734506E-1,-5.961923E-1,2.3684709E-1,-5.051238E-3,-1.2904683E0,-1.3440436E0,-3.9820662E-1,-9.5391876E-1,-2.4427746E-1,-3.9649522E-1,3.623093E-1,-6.8680786E-2,-2.0712627E-2,-1.5053614E-2,-8.000043E-2,-2.4274593E-2,2.3622327E-3,-8.452472E-3,-5.812428E-2,-2.6377236E-2,1.8285295E-2,-1.2346788E-3,-2.784958E-2,2.1080086E-2,-1.3727382E-2],"categories":[],"categories_nodes":[],"categories_segments":[],"categories_sizes":[],"default_left":[0,0,0,0,0,0,0,0,0,0,0,0,0,0,0,0,0,0,0,0,0,0,0,0,0,0,0,0,0],"id":2,"left_children":[1,3,5,7,9,11,13,-1,15,17,19,21,23,25,27,-1,-1,-1,-1,-1,-1,-1,-1,-1,-1,-1,-1,-1,-1],"loss_changes":[5.5593403E1,6.284527E0,3.109526E1,1.4543209E0,5.6787148E0,6.0593166E0,3.478399E1,0E0,2.7031517E-1,1.3402576E0,6.604788E0,3.8046875E0,4.7788057E0,4.3159437E0,1.3875278E1,0E0,0E0,0E0,0E0,0E0,0E0,0E0,0E0,0E0,0E0,0E0,0E0,0E0,0E0],"parents":[2147483647,0,0,1,1,2,2,3,3,4,4,5,5,6,6,8,8,9,9,10,10,11,11,12,12,13,13,14,14],"right_children":[2,4,6,8,10,12,14,-1,16,18,20,22,24,26,28,-1,-1,-1,-1,-1,-1,-1,-1,-1,-1,-1,-1,-1,-1],"split_conditions":[7.682115E-2,4.1E-1,4.3E-1,2E0,2.759764E-2,0E0,4.5E-1,-5.051238E-3,7.405925E-2,1.3E1,2E1,4E0,7.532E1,0E0,1.9286019E-1,-6.8680786E-2,-2.0712627E-2,-1.5053614E-2,-8.000043E-2,-2.4274593E-2,2.3622327E-3,-8.452472E-3,-5.812428E-2,-2.6377236E-2,1.8285295E-2,-1.2346788E-3,-2.784958E-2,2.1080086E-2,-1.3727382E-2],"split_indices":[8,0,0,10,8,7,1,0,8,10,10,10,3,7,8,0,0,0,0,0,0,0,0,0,0,0,0,0,0],"split_type":[0,0,0,0,0,0,0,0,0,0,0,0,0,0,0,0,0,0,0,0,0,0,0,0,0,0,0,0,0],"sum_hessian":[6.6987775E2,1.8595076E2,4.83927E2,1.1845354E1,1.7410541E2,4.898311E1,4.349439E2,1.3246863E0,1.0520667E1,5.824794E0,1.6828061E2,2.3442657E1,2.554045E1,7.155728E1,3.6338663E2,9.090379E0,1.4302883E0,1.57666E0,4.2481337E0,1.4063383E2,2.7646784E1,5.301776E0,1.8140882E1,1.7533363E1,8.007087E0,2.1923574E1,4.963371E1,3.3274545E2,3.0641153E1],"tree_param":{"num_deleted":"0","num_feature":"12","num_nodes":"29","size_leaf_vector":"1"}},{"base_weights":[6.7015877E-3,-3.3040342E-1,2.1889919E-1,-2.0157522E-1,-6.019856E-1,-4.9127734E-1,3.084196E-1,-3.0951858E-1,1.4441249E-1,-8.8022214E-1,-3.475579E-1,-1.5437926E-1,-9.4372797E-1,4.162773E-1,-4.2420343E-1,-3.6399566E-2,-9.4467215E-3,-5.3783525E-2,1.0351389E-2,-4.753013E-2,1.594243E-2,-6.760954E-2,-8.159835E-3,3.5508685E-2,-2.9142698E-2,2.2937274E-2,-5.4924924E-2,2.4176944E-2,-1.2326908E-2,-4.9542277E-3,-3.3845253E-2],"categories":[],"categories_nodes":[],"categories_segments":[],"categories_sizes":[],"default_left":[0,0,0,0,0,0,0,0,0,0,0,0,0,0,0,0,0,0,0,0,0,0,0,0,0,0,0,0,0,0,0],"id":3,"left_children":[1,3,5,7,9,11,13,15,17,19,21,23,25,27,29,-1,-1,-1,-1,-1,-1,-1,-1,-1,-1,-1,-1,-1,-1,-1,-1],"loss_changes":[4.7893974E1,8.928257E0,2.6272945E1,6.6527843E0,5.5496063E0,6.924012E0,2.905756E1,6.6838093E0,3.4891486E0,3.5822678E0,8.087886E0,1.0704877E1,4.7582684E0,1.4345127E1,3.8271055E0,0E0,0E0,0E0,0E0,0E0,0E0,0E0,0E0,0E0,0E0,0E0,0E0,0E0,0E0,0E0,0E0],"parents":[2147483647,0,0,1,1,2,2,3,3,4,4,5,5,6,6,7,7,8,8,9,9,10,10,11,11,12,12,13,13,14,14],"right_children":[2,4,6,8,10,12,14,16,18,20,22,24,26,28,30,-1,-1,-1,-1,-1,-1,-1,-1,-1,-1,-1,-1,-1,-1,-1,-1],"split_conditions":[8.967125E-2,4E0,4.3E-1,1.9E1,6.5351635E-2,1.5591933E-1,5.6E-1,5.4686826E-2,2.759764E-2,5.0448E2,-7.19869E-1,-3.150022E-1,1E0,1.9286019E-1,5.9E-1,-3.6399566E-2,-9.4467215E-3,-5.3783525E-2,1.0351389E-2,-4.753013E-2,1.594243E-2,-6.760954E-2,-8.159835E-3,3.5508685E-2,-2.9142698E-2,2.2937274E-2,-5.4924924E-2,2.4176944E-2,-1.2326908E-2,-4.9542277E-3,-3.3845253E-2],"split_indices":[8,11,0,10,8,8,0,8,8,3,5,5,11,8,0,0,0,0,0,0,0,0,0,0,0,0,0,0,0,0,0],"split_type":[0,0,0,0,0,0,0,0,0,0,0,0,0,0,0,0,0,0,0,0,0,0,0,0,0,0,0,0,0,0,0],"sum_hessian":[6.6752686E2,2.5765286E2,4.09874E2,1.759372E2,8.171567E1,4.5380093E1,3.644939E2,1.3418024E2,4.175696E1,3.7856747E1,4.385892E1,2.678041E1,1.8599684E1,3.180953E2,4.63986E1,2.8888607E1,1.0529163E2,1.2485939E0,4.050837E1,3.5953632E1,1.9031125E0,5.818409E0,3.8040512E1,8.65645E0,1.812396E1,1.6533741E0,1.6946308E1,2.890349E2,2.9060389E1,2.0900587E1,2.5498014E1],"tree_param":{"num_deleted":"0","num_feature":"12","num_nodes":"31","size_leaf_vector":"1"}},{"base_weights":[8.353749E-6,-8.390438E-1,6.779057E-2,-1.042993E0,9.59444E-1,1.3981767E-1,-4.8767403E-1,-1.1818111E0,-4.274255E-1,7.046891E-2,1.6104978E-1,1.8880454E-1,-2.9177725E-1,1.7243603E-1,-1.1975824E0,8.2720285E-3,-6.2446453E-2,-3.4459617E-2,2.7395576E-2,-1.9692158E-2,3.0940576E-2,-1.5163965E-2,1.1647885E-2,6.074924E-2,-4.655065E-2,2.2266053E-2,-3.549348E-2,-6.488841E-2,-1.680746E-2],"categories":[],"categories_nodes":[],"categories_segments":[],"categories_sizes":[],"default_left":[0,0,0,0,0,0,0,0,0,0,0,0,0,0,0,0,0,0,0,0,0,0,0,0,0,0,0,0,0],"id":4,"left_children":[1,3,5,7,9,11,13,15,17,-1,19,21,23,25,27,-1,-1,-1,-1,-1,-1,-1,-1,-1,-1,-1,-1,-1,-1],"loss_changes":[3.7932278E1,1.9286808E1,2.4757977E1,3.3619576E0,1.784112E0,1.162119E1,3.350585E1,3.4945183E0,2.9036913E0,0E0,1.0430416E0,1.0758179E1,5.5218803E1,9.391847E0,2.5294647E0,0E0,0E0,0E0,0E0,0E0,0E0,0E0,0E0,0E0,0E0,0E0,0E0,0E0,0E0],"parents":[2147483647,0,0,1,1,2,2,3,3,4,4,5,5,6,6,7,7,8,8,10,10,11,11,12,12,13,13,14,14],"right_children":[2,4,6,8,10,12,14,16,18,-1,20,22,24,26,28,-1,-1,-1,-1,-1,-1,-1,-1,-1,-1,-1,-1,-1,-1],"split_conditions":[4.1E-1,5.0928076E-3,5.6E-1,1.5992068E-3,6.5E-1,6.7968005E-3,1.7715883E-4,5.6E-1,1.9E1,7.046891E-2,5.83E1,4.5E-1,4.95E-1,6.4E-1,2.1E1,8.2720285E-3,-6.2446453E-2,-3.4459617E-2,2.7395576E-2,-1.9692158E-2,3.0940576E-2,-1.5163965E-2,1.1647885E-2,6.074924E-2,-4.655065E-2,2.2266053E-2,-3.549348E-2,-6.488841E-2,-1.680746E-2],"split_indices":[0,6,0,6,1,6,6,1,10,0,3,0,0,0,10,0,0,0,0,0,0,0,0,0,0,0,0,0,0],"split_type":[0,0,0,0,0,0,0,0,0,0,0,0,0,0,0,0,0,0,0,0,0,0,0,0,0,0,0,0,0],"sum_hessian":[6.6496674E2,4.885308E1,6.1611365E2,4.4254658E1,4.5984225E0,5.46055E2,7.005867E1,3.5360546E1,8.894113E0,2.4515743E0,2.1468482E0,4.9089948E2,5.5155502E1,3.6694912E1,3.3363754E1,1.6084932E0,3.3752052E1,7.2434516E0,1.6506609E0,1.0335839E0,1.1132644E0,3.993689E1,4.5096255E2,1.616107E1,3.8994434E1,2.840493E1,8.28998E0,2.9434017E1,3.9297392E0],"tree_param":{"num_deleted":"0","num_feature":"12","num_nodes":"29","size_leaf_vector":"1"}},{"base_weights":[-2.9476626E-2,-4.1175607E-1,1.6420607E-1,-3.1752428E-1,-8.132906E-1,2.5322416E-1,-5.450803E-1,-1.1758887E0,-2.9114628E-1,-1.0851585E0,-3.757281E-1,4.2078158E-1,-1.9279407E-1,-1.0976877E0,7.944084E-1,-1.1598109E-2,-6.985866E-2,-1.8984077E-2,1.080294E-3,-3.8619477E-2,-6.360301E-2,-3.3040583E-2,6.003901E-3,-1.9505775E-2,2.4679808E-2,-3.8784385E-2,7.918113E-2,-6.354155E-2,-3.474317E-2,5.4151155E-2,-5.6155245E-3],"categories":[],"categories_nodes":[],"categories_segments":[],"categories_sizes":[],"default_left":[0,0,0,0,0,0,0,0,0,0,0,0,0,0,0,0,0,0,0,0,0,0,0,0,0,0,0,0,0,0,0],"id":5,"left_children":[1,3,5,7,9,11,13,15,17,19,21,23,25,27,29,-1,-1,-1,-1,-1,-1,-1,-1,-1,-1,-1,-1,-1,-1,-1,-1],"loss_changes":[4.9636032E1,8.270802E0,2.8238802E1,3.828493E0,4.612892E0,2.9684212E1,3.7842125E1,7.543359E-1,4.9936028E0,5.082035E-1,2.5816348E0,1.7212704E1,1.1394686E2,1.6123352E0,4.090784E0,0E0,0E0,0E0,0E0,0E0,0E0,0E0,0E0,0E0,0E0,0E0,0E0,0E0,0E0,0E0,0E0],"parents":[2147483647,0,0,1,1,2,2,3,3,4,4,5,5,6,6,7,7,8,8,9,9,10,10,11,11,12,12,13,13,14,14],"right_children":[2,4,6,8,10,12,14,16,18,20,22,24,26,28,30,-1,-1,-1,-1,-1,-1,-1,-1,-1,-1,-1,-1,-1,-1,-1,-1],"split_conditions":[8.410682E-2,5E0,5.6E-1,2.759764E-2,6.600729E-2,3.1986884E-3,1.5992068E-3,1.8E1,1.9E1,2.97E2,1.3E1,4.1E-1,5E-1,-7.996283E-4,1.7764732E-1,-1.1598109E-2,-6.985866E-2,-1.8984077E-2,1.080294E-3,-3.8619477E-2,-6.360301E-2,-3.3040583E-2,6.003901E-3,-1.9505775E-2,2.4679808E-2,-3.8784385E-2,7.918113E-2,-6.354155E-2,-3.474317E-2,5.4151155E-2,-5.6155245E-3],"split_indices":[8,11,1,8,8,6,6,10,10,9,10,1,1,6,8,0,0,0,0,0,0,0,0,0,0,0,0,0,0,0,0],"split_type":[0,0,0,0,0,0,0,0,0,0,0,0,0,0,0,0,0,0,0,0,0,0,0,0,0,0,0,0,0,0,0],"sum_hessian":[6.684733E2,2.2441344E2,4.4405988E2,1.832089E2,4.1204536E1,3.9511453E2,4.894535E1,4.1629944E0,1.790459E2,2.4501295E1,1.6703241E1,2.8725638E2,1.0785815E2,3.4778122E1,1.4167231E1,1.1795745E0,2.98342E0,1.3937656E2,3.9669342E1,1.1084547E1,1.3416747E1,1.0393995E1,6.309246E0,2.3309816E1,2.6394656E2,8.163476E1,2.6223383E1,2.2816336E1,1.1961786E1,1.0599042E1,3.5681882E0],"tree_param":{"num_deleted":"0","num_feature":"12","num_nodes":"31","size_leaf_vector":"1"}},{"base_weights":[3.0957733E-3,-2.9719546E-1,1.9697349E-1,-4.7924164E-1,-1.3683341E-1,-4.024212E-1,2.8624523E-1,-6.393452E-1,-5.643196E-2,-2.9738985E-2,-5.232318E-1,-8.3508325E-1,9.3935287E-1,4.3750948E-1,-2.3685949E-1,-2.6709436E-2,-5.1279437E-2,-6.899642E-2,6.1714808E-3,-3.656881E-2,3.236911E-3,1.9608574E-2,-4.0937204E-2,-2.6569057E-2,-6.372948E-2,2.1660216E-2,7.807908E-2,2.5733262E-2,-2.7429957E-2,8.222559E-2,-4.2323396E-2],"categories":[],"categories_nodes":[],"categories_segments":[],"categories_sizes":[],"default_left":[0,0,0,0,0,0,0,0,0,0,0,0,0,0,0,0,0,0,0,0,0,0,0,0,0,0,0,0,0,0,0],"id":6,"left_children":[1,3,5,7,9,11,13,15,17,19,21,23,25,27,29,-1,-1,-1,-1,-1,-1,-1,-1,-1,-1,-1,-1,-1,-1,-1,-1],"loss_changes":[3.8691555E1,7.546236E0,2.1723927E1,8.203114E0,5.7788243E0,3.1416094E1,2.7961815E1,3.0339394E0,8.38929E0,7.385369E0,8.524926E0,4.71904E0,3.523633E0,2.1087475E1,9.2707726E1,0E0,0E0,0E0,0E0,0E0,0E0,0E0,0E0,0E0,0E0,0E0,0E0,0E0,0E0,0E0,0E0],"parents":[2147483647,0,0,1,1,2,2,3,3,4,4,5,5,6,6,7,7,8,8,9,9,10,10,11,11,12,12,13,13,14,14],"right_children":[2,4,6,8,10,12,14,16,18,20,22,24,26,28,30,-1,-1,-1,-1,-1,-1,-1,-1,-1,-1,-1,-1,-1,-1,-1,-1],"split_conditions":[9.0495184E-2,6.702824E-2,4.4E-1,1.8E1,5.3E-1,2.3989351E-3,4.397923E-3,5E0,2.759764E-2,4.3E-1,-1.9991999E-3,1.5591933E-1,5.994697E-3,6E-1,4.95E-1,-2.6709436E-2,-5.1279437E-2,-6.899642E-2,6.1714808E-3,-3.656881E-2,3.236911E-3,1.9608574E-2,-4.0937204E-2,-2.6569057E-2,-6.372948E-2,2.1660216E-2,7.807908E-2,2.5733262E-2,-2.7429957E-2,8.222559E-2,-4.2323396E-2],"split_indices":[8,8,0,10,0,6,6,11,8,0,6,8,6,0,0,0,0,0,0,0,0,0,0,0,0,0,0,0,0,0,0],"split_type":[0,0,0,0,0,0,0,0,0,0,0,0,0,0,0,0,0,0,0,0,0,0,0,0,0,0,0,0,0,0,0],"sum_hessian":[6.62572E2,2.5973834E2,4.0283368E2,1.207135E2,1.3902486E2,5.1764553E1,3.5106912E2,8.718673E1,3.3526775E1,1.09697876E2,2.9326973E1,3.9428314E1,1.2336239E1,2.7244952E2,7.86196E1,7.040239E1,1.678434E1,3.2128818E0,3.0313894E1,1.2218156E1,9.747972E1,7.077143E0,2.224983E1,2.4622808E1,1.4805504E1,7.7380104E0,4.5982285E0,2.5312262E2,1.9326899E1,1.882483E1,5.979477E1],"tree_param":{"num_deleted":"0","num_feature":"12","num_nodes":"31","size_leaf_vector":"1"}},{"base_weights":[7.3615983E-3,-3.0366743E-1,2.1471207E-1,-2.2082418E-1,-6.853483E-1,3.0451468E-1,-4.679285E-1,-1.1757468E0,-1.9508901E-1,-9.800746E-1,-3.8944656E-1,-2.802069E-1,4.295567E-1,-9.066272E-2,-8.444102E-1,-1.6800646E-2,-6.8898536E-2,-1.5546301E-2,-8.709351E-4,-3.277368E-2,-6.090479E-2,-8.759938E-3,-4.827113E-2,-2.3564352E-2,-4.4549014E-3,2.7359063E-2,3.8690343E-3,5.0706896E-3,-4.4085715E-2,5.531513E-3,-5.6830194E-2],"categories":[],"categories_nodes":[],"categories_segments":[],"categories_sizes":[],"default_left":[0,0,0,0,0,0,0,0,0,0,0,0,0,0,0,0,0,0,0,0,0,0,0,0,0,0,0,0,0,0,0],"id":7,"left_children":[1,3,5,7,9,11,13,15,17,19,21,23,25,27,29,-1,-1,-1,-1,-1,-1,-1,-1,-1,-1,-1,-1,-1,-1,-1,-1],"loss_changes":[4.322571E1,8.326136E0,2.4794243E1,5.2206106E0,3.746748E0,2.6148148E1,6.619627E0,4.9149036E-1,4.463661E0,9.8301315E-1,2.9506674E0,2.2702956E0,1.2122593E1,3.8375762E0,6.6770916E0,0E0,0E0,0E0,0E0,0E0,0E0,0E0,0E0,0E0,0E0,0E0,0E0,0E0,0E0,0E0,0E0],"parents":[2147483647,0,0,1,1,2,2,3,3,4,4,5,5,6,6,7,7,8,8,9,9,10,10,11,11,12,12,13,13,14,14],"right_children":[2,4,6,8,10,12,14,16,18,20,22,24,26,28,30,-1,-1,-1,-1,-1,-1,-1,-1,-1,-1,-1,-1,-1,-1,-1,-1],"split_conditions":[9.0495184E-2,5E0,5.6E-1,2.759764E-2,6.5351635E-2,4.5E-1,4E0,1.7269E2,1.3431E2,2.97E2,2.1965E2,4.1E-1,1.5776837E-1,2.1777E2,-4.0080413E-1,-1.6800646E-2,-6.8898536E-2,-1.5546301E-2,-8.709351E-4,-3.277368E-2,-6.090479E-2,-8.759938E-3,-4.827113E-2,-2.3564352E-2,-4.4549014E-3,2.7359063E-2,3.8690343E-3,5.0706896E-3,-4.4085715E-2,5.531513E-3,-5.6830194E-2],"split_indices":[8,11,1,8,8,1,11,3,4,9,4,1,8,3,5,0,0,0,0,0,0,0,0,0,0,0,0,0,0,0,0],"split_type":[0,0,0,0,0,0,0,0,0,0,0,0,0,0,0,0,0,0,0,0,0,0,0,0,0,0,0,0,0,0,0],"sum_hessian":[6.6823804E2,2.671077E2,4.0113034E2,2.2076874E2,4.633896E1,3.549853E2,4.6145046E1,4.620886E0,2.1614786E2,2.2057207E1,2.428175E1,6.2320633E1,2.9266467E2,2.3668283E1,2.247676E1,1.4133874E0,3.2074983E0,1.303879E2,8.575996E1,1.0919544E1,1.1137664E1,1.8648994E1,5.632754E0,3.042957E1,3.1891064E1,2.1897475E2,7.368991E1,1.9745617E1,3.9226663E0,5.411278E0,1.7065483E1],"tree_param":{"num_deleted":"0","num_feature":"12","num_nodes":"31","size_leaf_vector":"1"}},{"base_weights":[-4.4731954E-3,-6.041759E-1,6.0585126E-2,-8.644778E-1,-3.709208E-1,-6.697014E-1,1.0800479E-1,-2.1419783E-1,-1.0282375E0,-6.236719E-1,3.055517E-2,4.1773733E-2,-7.829367E-1,2.7579433E-1,2.1332627E-2,1.2187201E-2,-2.2335095E-2,-5.8847845E-2,-2.9149706E-2,-4.643544E-2,1.3261199E-2,-3.6620703E-2,1.5930517E-2,-4.8860412E-2,-1.0154604E-2,6.26755E-2,1.1288883E-2,-7.0308795E-4,3.4828104E-2],"categories":[],"categories_nodes":[],"categories_segments":[],"categories_sizes":[],"default_left":[0,0,0,0,0,0,0,0,0,0,0,0,0,0,0,0,0,0,0,0,0,0,0,0,0,0,0,0,0],"id":8,"left_children":[1,3,5,7,9,11,13,15,17,19,21,-1,23,25,27,-1,-1,-1,-1,-1,-1,-1,-1,-1,-1,-1,-1,-1,-1],"loss_changes":[2.6065786E1,3.649189E0,2.0946018E1,2.9902554E0,3.695897E0,6.941908E0,8.237963E0,8.891255E-1,8.9114E-1,6.2881365E0,3.5194564E0,0E0,3.7246704E0,9.155017E0,8.969032E0,0E0,0E0,0E0,0E0,0E0,0E0,0E0,0E0,0E0,0E0,0E0,0E0,0E0,0E0],"parents":[2147483647,0,0,1,1,2,2,3,3,4,4,5,5,6,6,7,7,8,8,9,9,10,10,12,12,13,13,14,14],"right_children":[2,4,6,8,10,12,14,16,18,20,22,-1,24,26,28,-1,-1,-1,-1,-1,-1,-1,-1,-1,-1,-1,-1,-1,-1],"split_conditions":[4.3E-1,0E0,4E-1,5E0,6.329E1,4.37E0,4.95E-1,1.632653E-1,4.1E-1,1.9554E2,3E0,4.1773733E-2,2E-2,4.95E-1,4.0131E2,1.2187201E-2,-2.2335095E-2,-5.8847845E-2,-2.9149706E-2,-4.643544E-2,1.3261199E-2,-3.6620703E-2,1.5930517E-2,-4.8860412E-2,-1.0154604E-2,6.26755E-2,1.1288883E-2,-7.0308795E-4,3.4828104E-2],"split_indices":[0,7,1,10,3,4,0,5,0,4,10,0,2,1,3,0,0,0,0,0,0,0,0,0,0,0,0,0,0],"split_type":[0,0,0,0,0,0,0,0,0,0,0,0,0,0,0,0,0,0,0,0,0,0,0,0,0,0,0,0,0],"sum_hessian":[6.6614716E2,6.438297E1,6.0176416E2,2.9148481E1,3.5234493E1,3.589167E1,5.658725E2,6.3280735E0,2.2820408E1,2.128253E1,1.3951965E1,2.064967E0,3.3826702E1,1.9199852E2,3.7387396E2,2.1146667E0,4.213407E0,1.5874599E1,6.9458075E0,1.5811728E1,5.470803E0,3.4010406E0,1.0550924E1,2.482427E1,9.002433E0,8.172982E0,1.8382553E2,3.5618265E2,1.7691319E1],"tree_param":{"num_deleted":"0","num_feature":"12","num_nodes":"29","size_leaf_vector":"1"}},{"base_weights":[-9.292368E-3,-3.5468894E-1,1.727637E-1,-2.2521369E-1,-6.330043E-1,-4.914371E-1,2.5601447E-1,-6.416173E-2,-1.9864564E-1,-4.6958572E-1,-8.3881646E-1,-9.679326E-1,7.476026E-1,3.427325E-1,-3.6084753E-1,2.5403539E-2,-1.2471677E-2,1.6017433E-2,-2.7418692E-2,-4.8239112E-2,-4.18019E-3,-2.8338466E-2,-6.6268176E-2,9.620201E-3,7.079851E-2,2.037823E-2,-1.8634092E-2,1.7325675E-2,-5.129519E-2],"categories":[],"categories_nodes":[],"categories_segments":[],"categories_sizes":[],"default_left":[0,0,0,0,0,0,0,0,0,0,0,0,0,0,0,0,0,0,0,0,0,0,0,0,0,0,0,0,0],"id":9,"left_children":[1,3,5,7,9,11,13,-1,15,17,19,21,23,25,27,-1,-1,-1,-1,-1,-1,-1,-1,-1,-1,-1,-1,-1,-1],"loss_changes":[4.1856674E1,8.136303E0,2.4230297E1,4.196309E0,2.040926E0,2.959134E1,2.0880482E1,0E0,5.7136555E0,2.8284874E0,2.8463974E0,4.375E0,4.976472E0,1.5954895E1,2.308341E1,0E0,0E0,0E0,0E0,0E0,0E0,0E0,0E0,0E0,0E0,0E0,0E0,0E0,0E0],"parents":[2147483647,0,0,1,1,2,2,3,3,4,4,5,5,6,6,8,8,9,9,10,10,11,11,12,12,13,13,14,14],"right_children":[2,4,6,8,10,12,14,-1,16,18,20,22,24,26,28,-1,-1,-1,-1,-1,-1,-1,-1,-1,-1,-1,-1,-1,-1],"split_conditions":[8.410682E-2,4E0,4.3E-1,2.759764E-2,2.976E2,1.9990338E-3,5.6E-1,-6.416173E-2,4.11769E-2,-4.797967E-3,3.1986884E-3,4E0,5.0928076E-3,7.5968136E-3,1.7715883E-4,2.5403539E-2,-1.2471677E-2,1.6017433E-2,-2.7418692E-2,-4.8239112E-2,-4.18019E-3,-2.8338466E-2,-6.6268176E-2,9.620201E-3,7.079851E-2,2.037823E-2,-1.8634092E-2,1.7325675E-2,-5.129519E-2],"split_indices":[8,11,0,8,9,6,0,0,8,6,6,11,6,6,6,0,0,0,0,0,0,0,0,0,0,0,0,0,0],"split_type":[0,0,0,0,0,0,0,0,0,0,0,0,0,0,0,0,0,0,0,0,0,0,0,0,0,0,0,0,0],"sum_hessian":[6.6366876E2,2.2874527E2,4.349235E2,1.5735245E2,7.1392815E1,4.789544E1,3.8702805E2,2.6958442E0,1.546566E2,4.1624126E1,2.976869E1,3.4750355E1,1.3145082E1,3.3971548E2,4.7312576E1,9.76549E0,1.4489111E2,3.4970028E0,3.8127125E1,2.5275383E1,4.493307E0,1.759182E1,1.7158537E1,7.8839364E0,5.261146E0,3.1188245E2,2.783302E1,2.3159187E1,2.415339E1],"tree_param":{"num_deleted":"0","num_feature":"12","num_nodes":"29","size_leaf_vector":"1"}},{"base_weights":[-2.9171327E-2,-4.0580946E-1,9.5689505E-2,-5.060182E-1,1.0738692E-1,-4.6865386E-1,1.7430976E-1,-6.332003E-2,-5.737975E-1,-2.0704749E-1,6.996519E-1,-9.0999633E-1,6.709304E-1,2.9449946E-1,-1.6389923E-1,1.8581705E-2,-3.3395197E-2,-3.516075E-2,-2.0369025E-2,-5.1360488E-2,-1.9191709E-4,-2.881729E-2,4.798574E-2,-3.4407657E-2,-6.597553E-2,1.0240832E-2,6.1702657E-2,-1.0620308E-2,2.0966463E-2,3.4525443E-2,-3.5167575E-2],"categories":[],"categories_nodes":[],"categories_segments":[],"categories_sizes":[],"default_left":[0,0,0,0,0,0,0,0,0,0,0,0,0,0,0,0,0,0,0,0,0,0,0,0,0,0,0,0,0,0,0],"id":10,"left_children":[1,3,5,7,9,11,13,15,17,19,21,23,25,27,29,-1,-1,-1,-1,-1,-1,-1,-1,-1,-1,-1,-1,-1,-1,-1,-1],"loss_changes":[3.0927187E1,8.474035E0,2.20041E1,4.078972E0,5.2794285E0,3.1133394E1,1.7706577E1,5.3325076E0,2.2725067E0,3.1262681E0,3.801777E0,3.1047554E0,4.345276E0,2.0392433E1,5.327932E1,0E0,0E0,0E0,0E0,0E0,0E0,0E0,0E0,0E0,0E0,0E0,0E0,0E0,0E0,0E0,0E0],"parents":[2147483647,0,0,1,1,2,2,3,3,4,4,5,5,6,6,7,7,8,8,9,9,10,10,11,11,12,12,13,13,14,14],"right_children":[2,4,6,8,10,12,14,16,18,20,22,24,26,28,30,-1,-1,-1,-1,-1,-1,-1,-1,-1,-1,-1,-1,-1,-1,-1,-1],"split_conditions":[7.4905075E-2,2E1,4.4E-1,2.952E2,9.1327424E-4,1.9990338E-3,5.3E-1,7.996351E-4,1.1E1,3.40737E-2,1.66E1,1.5591933E-1,5.0928076E-3,-4.398042E-3,-7.996783E-4,1.8581705E-2,-3.3395197E-2,-3.516075E-2,-2.0369025E-2,-5.1360488E-2,-1.9191709E-4,-2.881729E-2,4.798574E-2,-3.4407657E-2,-6.597553E-2,1.0240832E-2,6.1702657E-2,-1.0620308E-2,2.0966463E-2,3.4525443E-2,-3.5167575E-2],"split_indices":[8,10,0,9,6,6,0,6,10,8,3,8,6,6,6,0,0,0,0,0,0,0,0,0,0,0,0,0,0,0,0],"split_type":[0,0,0,0,0,0,0,0,0,0,0,0,0,0,0,0,0,0,0,0,0,0,0,0,0,0,0,0,0,0,0],"sum_hessian":[6.5581683E2,1.6272195E2,4.930949E2,1.3615062E2,2.6571331E1,5.9688007E1,4.334069E2,1.8334387E1,1.1781624E2,1.7781511E1,8.789819E0,4.317031E1,1.6517694E1,3.1986526E2,1.13541626E2,1.0887168E1,7.447219E0,6.4461136E1,5.33551E1,2.7256627E0,1.5055849E1,1.2822555E0,7.507563E0,2.973993E1,1.3430383E1,9.783397E0,6.7342978E0,6.3066185E1,2.567991E2,4.383454E1,6.9707085E1],"tree_param":{"num_deleted":"0","num_feature":"12","num_nodes":"31","size_leaf_vector":"1"}},{"base_weights":[8.904672E-3,-3.0391648E-1,2.1257721E-1,-6.381885E-1,-1.879298E-1,2.9161036E-1,-3.6669424E-1,-7.371552E-1,4.2142823E-1,-1.2885797E-1,-8.297604E-1,-3.1974903E-1,3.842461E-1,-6.8063754E-1,-9.700595E-2,-4.4647615E-2,-1.942876E-2,4.4092506E-2,-7.846562E-3,-2.3835562E-2,-9.727288E-4,1.7467184E-2,-4.736192E-2,-4.912823E-3,-3.1549733E-2,3.1104868E-2,1.3382769E-2,9.249133E-3,-4.1863687E-2,-5.3480018E-2,5.4525323E-3],"categories":[],"categories_nodes":[],"categories_segments":[],"categories_sizes":[],"default_left":[0,0,0,0,0,0,0,0,0,0,0,0,0,0,0,0,0,0,0,0,0,0,0,0,0,0,0,0,0,0,0],"id":11,"left_children":[1,3,5,7,9,11,13,15,17,19,21,23,25,27,29,-1,-1,-1,-1,-1,-1,-1,-1,-1,-1,-1,-1,-1,-1,-1,-1],"loss_changes":[4.1891464E1,9.93298E0,1.8337133E1,7.271242E0,7.245133E0,1.9998468E1,4.019062E0,2.9695663E0,1.8176317E0,6.793461E0,2.5692549E0,3.1592135E0,8.297741E0,3.1552935E0,5.5517426E0,0E0,0E0,0E0,0E0,0E0,0E0,0E0,0E0,0E0,0E0,0E0,0E0,0E0,0E0,0E0,0E0],"parents":[2147483647,0,0,1,1,2,2,3,3,4,4,5,5,6,6,7,7,8,8,9,9,10,10,11,11,12,12,13,13,14,14],"right_children":[2,4,6,8,10,12,14,16,18,20,22,24,26,28,30,-1,-1,-1,-1,-1,-1,-1,-1,-1,-1,-1,-1,-1,-1,-1,-1],"split_conditions":[8.967125E-2,5.4686826E-2,5.6E-1,2.2E1,5.7E-1,4.4E-1,0E0,1.205994E-1,-7.822172E-2,4.7E-1,-8.8516164E-1,1.7269E2,1E2,-2.636535E-1,6.22E0,-4.4647615E-2,-1.942876E-2,4.4092506E-2,-7.846562E-3,-2.3835562E-2,-9.727288E-4,1.7467184E-2,-4.736192E-2,-4.912823E-3,-3.1549733E-2,3.1104868E-2,1.3382769E-2,9.249133E-3,-4.1863687E-2,-5.3480018E-2,5.4525323E-3],"split_indices":[8,8,1,10,1,1,7,5,5,1,5,3,3,5,3,0,0,0,0,0,0,0,0,0,0,0,0,0,0,0,0],"split_type":[0,0,0,0,0,0,0,0,0,0,0,0,0,0,0,0,0,0,0,0,0,0,0,0,0,0,0,0,0,0,0],"sum_hessian":[6.554878E2,2.5828894E2,3.9719885E2,6.537549E1,1.9291347E2,3.499499E2,4.7248974E1,6.006941E1,5.3060803E0,1.7775435E2,1.5159118E1,4.572583E1,3.0422406E2,2.112899E1,2.6119984E1,4.043526E1,1.9634146E1,2.6620917E0,2.6439888E0,4.1726284E1,1.3602806E2,1.1946777E0,1.396444E1,2.7483421E1,1.824241E1,9.864577E1,2.0557828E2,3.2097797E0,1.791921E1,3.833748E0,2.2286236E1],"tree_param":{"num_deleted":"0","num_feature":"12","num_nodes":"31","size_leaf_vector":"1"}},{"base_weights":[-1.4042581E-2,-4.535845E-1,8.786411E-2,-3.1657502E-1,-6.091652E-1,-4.655821E-1,1.5054919E-1,-3.8472992E-1,7.5369185E-1,-7.2268003E-1,3.4128043E-1,-6.787325E-1,1.0302632E0,2.3825924E-1,-2.4962342E-1,-2.2497786E-2,4.0012073E-2,-1.9747058E-2,6.095484E-2,-3.830491E-2,3.2706536E-2,-2.701284E-2,4.2087507E-2,-4.046787E-2,-3.0639383E-3,8.3725987E-4,6.0127366E-2,1.3898236E-2,-2.247609E-2,5.7045657E-2,-3.9959345E-2],"categories":[],"categories_nodes":[],"categories_segments":[],"categories_sizes":[],"default_left":[0,0,0,0,0,0,0,0,0,0,0,0,0,0,0,0,0,0,0,0,0,0,0,0,0,0,0,0,0,0,0],"id":12,"left_children":[1,3,5,7,9,11,13,15,17,19,21,23,25,27,29,-1,-1,-1,-1,-1,-1,-1,-1,-1,-1,-1,-1,-1,-1,-1,-1],"loss_changes":[2.9615648E1,2.4596329E0,1.8695011E1,5.2683196E0,6.4165115E0,1.8191984E1,1.7011974E1,5.370455E0,2.8463836E0,3.5741253E0,3.4462233E0,3.872137E0,1.2440414E0,1.0957478E1,6.763961E1,0E0,0E0,0E0,0E0,0E0,0E0,0E0,0E0,0E0,0E0,0E0,0E0,0E0,0E0,0E0,0E0],"parents":[2147483647,0,0,1,1,2,2,3,3,4,4,5,5,6,6,7,7,8,8,9,9,10,10,11,11,12,12,13,13,14,14],"right_children":[2,4,6,8,10,12,14,16,18,20,22,24,26,28,30,-1,-1,-1,-1,-1,-1,-1,-1,-1,-1,-1,-1,-1,-1,-1,-1],"split_conditions":[6.702824E-2,1.237E2,4.3E-1,1.0782E2,3.997568E-3,4.7979993E-3,4.7979993E-3,4.1237E2,-1.9981798E-3,3E-2,-2.5331838E-2,1.9990338E-3,1.027E1,6.1E-1,4.95E-1,-2.2497786E-2,4.0012073E-2,-1.9747058E-2,6.095484E-2,-3.830491E-2,3.2706536E-2,-2.701284E-2,4.2087507E-2,-4.046787E-2,-3.0639383E-3,8.3725987E-4,6.0127366E-2,1.3898236E-2,-2.247609E-2,5.7045657E-2,-3.9959345E-2],"split_indices":[8,3,0,3,6,6,6,4,6,2,5,6,4,0,0,0,0,0,0,0,0,0,0,0,0,0,0,0,0,0,0],"split_type":[0,0,0,0,0,0,0,0,0,0,0,0,0,0,0,0,0,0,0,0,0,0,0,0,0,0,0,0,0,0,0],"sum_hessian":[6.592881E2,1.2343589E2,5.3585223E2,6.7249016E1,5.618688E1,5.386359E1,4.8198862E2,6.3825138E1,3.4238741E0,5.0406326E1,5.7805514E0,4.7623707E1,6.239883E0,3.9567004E2,8.6318565E1,6.1083145E1,2.741992E0,1.0309247E0,2.3929496E0,4.9295353E1,1.1109746E0,2.0645366E0,3.7160149E0,3.9051422E1,8.572284E0,1.0659975E0,5.1738853E0,3.7463812E2,2.1031935E1,2.414627E1,6.21723E1],"tree_param":{"num_deleted":"0","num_feature":"12","num_nodes":"31","size_leaf_vector":"1"}},{"base_weights":[-1.9873194E-3,-2.1753421E-1,2.0575427E-1,-6.722841E-1,-1.6718394E-1,3.1605536E-1,-1.8594587E-1,-9.5905954E-1,-5.584173E-2,-3.9144665E-1,-6.384544E-2,-5.0948983E-1,4.2732927E-1,1.3631917E0,-8.188631E-1,-1.9100687E-2,-5.5696715E-2,2.3861598E-2,-2.772283E-2,-2.3596473E-2,1.9605834E-2,-4.305166E-2,-1.4199303E-3,-4.3878905E-2,1.2350231E-2,2.3933318E-2,-2.502562E-2,-5.419838E-3,7.5168036E-2,-2.9623235E-2,-5.5413593E-2],"categories":[],"categories_nodes":[],"categories_segments":[],"categories_sizes":[],"default_left":[0,0,0,0,0,0,0,0,0,0,0,0,0,0,0,0,0,0,0,0,0,0,0,0,0,0,0,0,0,0,0],"id":13,"left_children":[1,3,5,7,9,11,13,15,17,19,21,23,25,27,29,-1,-1,-1,-1,-1,-1,-1,-1,-1,-1,-1,-1,-1,-1,-1,-1],"loss_changes":[2.9525314E1,7.2970324E0,1.4565665E1,5.59048E0,6.7577314E0,2.4318872E1,7.40693E1,1.5162964E0,3.241206E0,5.99485E0,5.6708517E0,9.021368E0,1.1278175E1,4.692066E0,2.845436E0,0E0,0E0,0E0,0E0,0E0,0E0,0E0,0E0,0E0,0E0,0E0,0E0,0E0,0E0,0E0,0E0],"parents":[2147483647,0,0,1,1,2,2,3,3,4,4,5,5,6,6,7,7,8,8,9,9,10,10,11,11,12,12,13,13,14,14],"right_children":[2,4,6,8,10,12,14,16,18,20,22,24,26,28,30,-1,-1,-1,-1,-1,-1,-1,-1,-1,-1,-1,-1,-1,-1,-1,-1],"split_conditions":[1.0074012E-1,4.4E-1,4.397923E-3,1.5992875E-3,6.298349E-2,4.3E-1,4.95E-1,5E0,1.0189E2,2.2E1,1.491E1,3.9980892E-4,6.2E-1,3.4E-1,5.3E-1,-1.9100687E-2,-5.5696715E-2,2.3861598E-2,-2.772283E-2,-2.3596473E-2,1.9605834E-2,-4.305166E-2,-1.4199303E-3,-4.3878905E-2,1.2350231E-2,2.3933318E-2,-2.502562E-2,-5.419838E-3,7.5168036E-2,-2.9623235E-2,-5.5413593E-2],"split_indices":[8,0,6,6,8,0,0,10,3,10,3,6,0,0,0,0,0,0,0,0,0,0,0,0,0,0,0,0,0,0,0],"split_type":[0,0,0,0,0,0,0,0,0,0,0,0,0,0,0,0,0,0,0,0,0,0,0,0,0,0,0,0,0,0,0],"sum_hessian":[6.573706E2,3.2260132E2,3.347693E2,3.0926796E1,2.9167453E2,2.6136356E2,7.340575E1,2.072808E1,1.0198716E1,9.112634E1,2.0054819E2,3.0619284E1,2.3074428E2,2.0957073E1,5.244867E1,5.119604E0,1.5608477E1,4.949764E0,5.2489524E0,8.299892E1,8.127426E0,7.5461817E0,1.93002E2,2.0489588E1,1.0129697E1,2.1910538E2,1.1638897E1,1.8422759E0,1.9114798E1,3.1137568E1,2.1311102E1],"tree_param":{"num_deleted":"0","num_feature":"12","num_nodes":"31","size_leaf_vector":"1"}},{"base_weights":[-8.016382E-3,-5.135873E-1,2.95728E-2,-6.6912943E-1,5.67047E-2,-5.017002E-1,7.167819E-2,-7.9827464E-1,-2.8333724E-1,5.501009E-1,-8.759377E-1,1.0407039E-1,-3.577796E-1,-4.2879358E-2,1.41394185E-2,-4.9321953E-2,1.7388315E-5,-2.2987607E-4,6.5880135E-2,-4.9331617E-2,-5.2042305E-3,8.753312E-3,-3.1626148E-3,4.9420383E-2,-4.761693E-2],"categories":[],"categories_nodes":[],"categories_segments":[],"categories_sizes":[],"default_left":[0,0,0,0,0,0,0,0,0,0,0,0,0,0,0,0,0,0,0,0,0,0,0,0,0],"id":14,"left_children":[1,3,5,7,-1,9,11,13,15,17,19,21,23,-1,-1,-1,-1,-1,-1,-1,-1,-1,-1,-1,-1],"loss_changes":[1.2519785E1,1.2443087E1,1.3757551E1,1.8807068E0,0E0,1.8261778E1,7.955941E0,2.2386875E0,2.4249327E0,5.3141885E0,2.7767735E0,6.3081036E0,3.3076244E1,0E0,0E0,0E0,0E0,0E0,0E0,0E0,0E0,0E0,0E0,0E0,0E0],"parents":[2147483647,0,0,1,1,2,2,3,3,5,5,6,6,7,7,8,8,9,9,10,10,11,11,12,12],"right_children":[2,4,6,8,-1,10,12,14,16,18,20,22,24,-1,-1,-1,-1,-1,-1,-1,-1,-1,-1,-1,-1],"split_conditions":[4.1E-1,5.9978734E-3,4.1E-1,1.5992068E-3,5.67047E-2,-2.9878458E-3,7.592737E-3,8.435548E-1,-6.912614E-1,1.2E1,2.1E1,5.1E-1,4.95E-1,-4.2879358E-2,1.41394185E-2,-4.9321953E-2,1.7388315E-5,-2.2987607E-4,6.5880135E-2,-4.9331617E-2,-5.2042305E-3,8.753312E-3,-3.1626148E-3,4.9420383E-2,-4.761693E-2],"split_indices":[0,6,1,6,0,6,6,5,5,10,10,1,0,0,0,0,0,0,0,0,0,0,0,0,0],"split_type":[0,0,0,0,0,0,0,0,0,0,0,0,0,0,0,0,0,0,0,0,0,0,0,0,0],"sum_hessian":[6.569983E2,4.459096E1,6.124073E2,4.1287308E1,3.3036518E0,4.416988E1,5.682374E2,3.0131506E1,1.1155803E1,1.1468246E1,3.2701633E1,5.290882E2,3.9149223E1,2.876029E1,1.3712145E0,2.4949462E0,8.660857E0,7.234005E0,4.234241E0,2.835663E1,4.3450046E0,3.7143866E2,1.5764955E2,1.1790659E1,2.7358566E1],"tree_param":{"num_deleted":"0","num_feature":"12","num_nodes":"25","size_leaf_vector":"1"}},{"base_weights":[3.3312373E-2,-5.5813193E-1,6.939353E-2,-6.940334E-1,4.900673E-2,-2.9917082E-1,1.1756001E-1,-8.1700975E-1,-1.365906E-1,8.2996947E-1,-5.852234E-1,2.7647927E-1,5.1318474E-2,-2.1268778E-2,-5.2050572E-2,-3.5324115E-2,3.450561E-2,5.2230474E-2,1.1795389E-3,-7.881108E-3,-4.3402106E-2,1.6261164E-2,-1.16992E-2,3.1301216E-3,-4.8453074E-2],"categories":[],"categories_nodes":[],"categories_segments":[],"categories_sizes":[],"default_left":[0,0,0,0,0,0,0,0,0,0,0,0,0,0,0,0,0,0,0,0,0,0,0,0,0],"id":15,"left_children":[1,3,5,7,-1,9,11,13,15,17,19,21,23,-1,-1,-1,-1,-1,-1,-1,-1,-1,-1,-1,-1],"loss_changes":[1.396075E1,8.545106E0,1.0966587E1,2.2982197E0,0E0,2.3564835E1,5.7263794E0,2.0660572E0,4.0465493E0,2.54673E0,6.8286324E0,4.062249E0,4.506348E0,0E0,0E0,0E0,0E0,0E0,0E0,0E0,0E0,0E0,0E0,0E0,0E0],"parents":[2147483647,0,0,1,1,2,2,3,3,5,5,6,6,7,7,8,8,9,9,10,10,11,11,12,12],"right_children":[2,4,6,8,-1,10,12,14,16,18,20,22,24,-1,-1,-1,-1,-1,-1,-1,-1,-1,-1,-1,-1],"split_conditions":[4E-1,5.994697E-3,4.4E-1,2.3816836E-3,4.900673E-2,-3.9981804E-3,2E0,6E0,2.97E2,6.4E-1,1.7715883E-4,6.3969004E-3,1.1595161E-2,-2.1268778E-2,-5.2050572E-2,-3.5324115E-2,3.450561E-2,5.2230474E-2,1.1795389E-3,-7.881108E-3,-4.3402106E-2,1.6261164E-2,-1.16992E-2,3.1301216E-3,-4.8453074E-2],"split_indices":[0,6,1,6,0,6,11,10,9,0,6,6,6,0,0,0,0,0,0,0,0,0,0,0,0],"split_type":[0,0,0,0,0,0,0,0,0,0,0,0,0,0,0,0,0,0,0,0,0,0,0,0,0],"sum_hessian":[6.513909E2,3.662144E1,6.147695E2,3.4152946E1,2.4684937E0,7.045381E1,5.443157E2,2.7598791E1,6.554156E0,1.3856469E1,5.6597343E1,1.5920209E2,3.8511356E2,1.1096744E1,1.6502048E1,3.9657605E0,2.588395E0,1.0710217E1,3.146252E0,2.3151417E1,3.3445927E1,1.456563E2,1.3545795E1,3.818297E2,3.283849E0],"tree_param":{"num_deleted":"0","num_feature":"12","num_nodes":"25","size_leaf_vector":"1"}},{"base_weights":[-4.133528E-3,-2.7213958E-1,1.7741196E-1,-5.168895E-1,-1.8521309E-1,2.8694484E-1,-1.19545534E-1,-6.084855E-1,3.452782E-1,-6.088798E-2,-1.5887879E-1,3.5347193E-1,-2.818043E-1,-7.290137E-1,-1.9253116E-2,1.2282303E-2,-3.3216577E-2,5.9455484E-2,-5.1187756E-3,-5.7582404E-3,-3.9492756E-2,4.938593E-3,2.5349123E-2,3.1375088E-2,-3.1151429E-2,-5.634244E-2,1.2602505E-2,4.189412E-2,-4.346212E-3],"categories":[],"categories_nodes":[],"categories_segments":[],"categories_sizes":[],"default_left":[0,0,0,0,0,0,0,0,0,0,0,0,0,0,0,0,0,0,0,0,0,0,0,0,0,0,0,0,0],"id":16,"left_children":[1,3,5,7,9,11,13,15,17,-1,19,21,23,25,27,-1,-1,-1,-1,-1,-1,-1,-1,-1,-1,-1,-1,-1,-1],"loss_changes":[3.1780949E1,5.5161343E0,1.27007885E1,5.6253166E0,5.1415358E0,1.0874907E1,6.4431376E0,3.1372185E0,2.850337E0,0E0,5.217916E0,9.93589E0,9.816876E0,6.099562E0,5.3939776E0,0E0,0E0,0E0,0E0,0E0,0E0,0E0,0E0,0E0,0E0,0E0,0E0,0E0,0E0],"parents":[2147483647,0,0,1,1,2,2,3,3,4,4,5,5,6,6,7,7,8,8,10,10,11,11,12,12,13,13,14,14],"right_children":[2,4,6,8,10,12,14,16,18,-1,20,22,24,26,28,-1,-1,-1,-1,-1,-1,-1,-1,-1,-1,-1,-1,-1,-1],"split_conditions":[9.0495184E-2,5.4686826E-2,1.5776837E-1,2.2E1,-9.3204194E-1,5.6E-1,4.3E-1,-7.8077656E-1,2.964E2,-6.088798E-2,5.8E-1,1.0964336E-1,-2.7985529E-3,2.3816836E-3,-8.795515E-3,1.2282303E-2,-3.3216577E-2,5.9455484E-2,-5.1187756E-3,-5.7582404E-3,-3.9492756E-2,4.938593E-3,2.5349123E-2,3.1375088E-2,-3.1151429E-2,-5.634244E-2,1.2602505E-2,4.189412E-2,-4.346212E-3],"split_indices":[8,8,8,10,5,0,0,5,9,0,0,8,6,6,6,0,0,0,0,0,0,0,0,0,0,0,0,0,0],"split_type":[0,0,0,0,0,0,0,0,0,0,0,0,0,0,0,0,0,0,0,0,0,0,0,0,0,0,0,0,0],"sum_hessian":[6.5119354E2,2.6277444E2,3.884191E2,6.7572174E1,1.9520227E2,2.8378033E2,1.0463876E2,6.134877E1,6.2234077E0,3.7294934E0,1.9147276E2,2.544013E2,2.9379038E1,1.3900116E1,9.073865E1,3.556443E0,5.7792324E1,1.5830421E0,4.6403656E0,1.8017293E2,1.1299847E1,9.628745E1,1.5811386E2,7.787546E0,2.1591492E1,9.7839775E0,4.1161394E0,5.8068085E0,8.493184E1],"tree_param":{"num_deleted":"0","num_feature":"12","num_nodes":"29","size_leaf_vector":"1"}},{"base_weights":[-3.0133257E-2,-5.08024E-1,4.6336423E-3,-6.8908876E-1,1.0112103E0,4.3927666E-2,-3.7612665E-1,-9.3630725E-1,-2.7090368E-1,6.8595507E-3,6.2352635E-2,7.2178945E-2,-3.6785242E-1,8.872245E-1,-5.969374E-1,-2.4438139E-2,-5.504008E-2,-2.2868766E-2,2.6527032E-2,6.7477794E-3,-6.009688E-3,5.6178637E-2,-4.5535564E-2,6.4422615E-2,-2.3805646E-3,-3.8649812E-2,-1.16486205E-2],"categories":[],"categories_nodes":[],"categories_segments":[],"categories_sizes":[],"default_left":[0,0,0,0,0,0,0,0,0,0,0,0,0,0,0,0,0,0,0,0,0,0,0,0,0,0,0],"id":17,"left_children":[1,3,5,7,9,11,13,15,17,-1,-1,19,21,23,25,-1,-1,-1,-1,-1,-1,-1,-1,-1,-1,-1,-1],"loss_changes":[1.0779299E1,1.2799661E1,9.077846E0,3.872057E0,8.7823963E-1,6.4234695E0,1.6363222E1,1.2783737E0,2.6687493E0,0E0,0E0,6.2405934E0,2.973922E1,3.3795881E0,2.9541817E0,0E0,0E0,0E0,0E0,0E0,0E0,0E0,0E0,0E0,0E0,0E0,0E0],"parents":[2147483647,0,0,1,1,2,2,3,3,4,4,5,5,6,6,7,7,8,8,11,11,12,12,13,13,14,14],"right_children":[2,4,6,8,10,12,14,16,18,-1,-1,20,22,24,26,-1,-1,-1,-1,-1,-1,-1,-1,-1,-1,-1,-1],"split_conditions":[4.1E-1,5.0928076E-3,5.7E-1,1.7715883E-4,5.994697E-3,7.709409E-3,-4.797128E-3,6E0,4E-1,6.8595507E-3,6.2352635E-2,5.2E-1,4.95E-1,6.4E-1,2.97E2,-2.4438139E-2,-5.504008E-2,-2.2868766E-2,2.6527032E-2,6.7477794E-3,-6.009688E-3,5.6178637E-2,-4.5535564E-2,6.4422615E-2,-2.3805646E-3,-3.8649812E-2,-1.16486205E-2],"split_indices":[0,6,0,6,6,6,6,10,0,0,0,1,0,0,9,0,0,0,0,0,0,0,0,0,0,0,0],"split_type":[0,0,0,0,0,0,0,0,0,0,0,0,0,0,0,0,0,0,0,0,0,0,0,0,0,0,0],"sum_hessian":[6.4763605E2,4.2997585E1,6.046385E2,3.890701E1,4.0905757E0,5.488794E2,5.575909E1,2.3673166E1,1.5233845E1,1.2053436E0,2.8852322E0,5.144115E2,3.4467865E1,7.8467145E0,4.7912376E1,7.4298553E0,1.624331E1,1.2706696E1,2.527149E0,3.8807135E2,1.2634016E2,8.912458E0,2.5555407E1,5.2256293E0,2.6210852E0,3.153453E1,1.6377844E1],"tree_param":{"num_deleted":"0","num_feature":"12","num_nodes":"27","size_leaf_vector":"1"}},{"base_weights":[1.0983957E-3,-1.6720065E-1,1.743817E-1,-1.324747E-1,-7.918213E-1,-3.0219716E-1,2.3888874E-1,-4.0765652E-1,-7.088348E-2,-9.50431E-1,2.2600915E-2,-8.345985E-1,4.8648435E-1,3.513152E-1,-1.3664673E-1,-2.6333213E-2,3.4541745E-2,-2.0054488E-2,-1.0395015E-4,-2.4451112E-2,-6.1288483E-2,-2.8511813E-2,-5.762268E-2,4.362982E-2,-1.3984258E-2,2.907816E-2,5.6844237E-3,7.234093E-2,-3.3675957E-2],"categories":[],"categories_nodes":[],"categories_segments":[],"categories_sizes":[],"default_left":[0,0,0,0,0,0,0,0,0,0,0,0,0,0,0,0,0,0,0,0,0,0,0,0,0,0,0,0,0],"id":18,"left_children":[1,3,5,7,9,11,13,15,17,19,-1,21,23,25,27,-1,-1,-1,-1,-1,-1,-1,-1,-1,-1,-1,-1,-1,-1],"loss_changes":[1.9152107E1,7.121374E0,1.0019419E1,5.3406115E0,3.8515835E0,1.6788673E1,1.2103878E1,7.910738E0,5.9080615E0,1.395915E0,0E0,1.3310108E0,5.0824184E0,1.1972826E1,5.751608E1,0E0,0E0,0E0,0E0,0E0,0E0,0E0,0E0,0E0,0E0,0E0,0E0,0E0,0E0],"parents":[2147483647,0,0,1,1,2,2,3,3,4,4,5,5,6,6,7,7,8,8,9,9,11,11,12,12,13,13,14,14],"right_children":[2,4,6,8,10,12,14,16,18,20,-1,22,24,26,28,-1,-1,-1,-1,-1,-1,-1,-1,-1,-1,-1,-1,-1,-1],"split_conditions":[1.0220287E-1,5.9E-1,4.3E-1,5.3491995E-2,5.5972794E-3,3.9982345E-4,4.397923E-3,2.2E1,4.6E-1,8E0,2.2600915E-2,1.5384431E-1,1.6666177E-1,4.95E-1,4.95E-1,-2.6333213E-2,3.4541745E-2,-2.0054488E-2,-1.0395015E-4,-2.4451112E-2,-6.1288483E-2,-2.8511813E-2,-5.762268E-2,4.362982E-2,-1.3984258E-2,2.907816E-2,5.6844237E-3,7.234093E-2,-3.3675957E-2],"split_indices":[8,1,0,8,6,6,6,10,1,10,0,8,8,1,0,0,0,0,0,0,0,0,0,0,0,0,0,0,0],"split_type":[0,0,0,0,0,0,0,0,0,0,0,0,0,0,0,0,0,0,0,0,0,0,0,0,0,0,0,0,0],"sum_hessian":[6.5471716E2,3.321531E2,3.2256406E2,3.1580777E2,1.6345322E1,3.8016068E1,2.8454797E2,5.6729374E1,2.590784E2,1.4705963E1,1.6393594E0,2.2660692E1,1.5355374E1,2.1903773E2,6.551025E1,5.165388E1,5.0754905E0,4.3842102E1,2.152363E2,6.5334206E0,8.172543E0,1.3896716E1,8.763977E0,1.011766E1,5.2377152E0,1.1051097E2,1.08526764E2,1.6158133E1,4.9352116E1],"tree_param":{"num_deleted":"0","num_feature":"12","num_nodes":"29","size_leaf_vector":"1"}},{"base_weights":[1.3412379E-2,-2.2743012E-1,1.6687109E-1,1.7123084E-1,-2.7665988E-1,2.280483E-1,-3.8879985E-1,-9.858079E-2,9.172281E-1,-4.2112797E-1,-1.754255E-1,-2.40855E-1,2.912271E-1,-6.883376E-1,1.3541321E-1,-1.2406747E-2,4.1706815E-2,6.1603636E-2,-9.586311E-3,-4.074336E-2,-1.3178085E-2,-5.0724824E-3,-4.3598402E-2,1.8359257E-2,-3.6927458E-2,2.39829E-2,8.072977E-3,-5.6042768E-2,-2.117802E-2,4.5887403E-2,-1.4738686E-2],"categories":[],"categories_nodes":[],"categories_segments":[],"categories_sizes":[],"default_left":[0,0,0,0,0,0,0,0,0,0,0,0,0,0,0,0,0,0,0,0,0,0,0,0,0,0,0,0,0,0,0],"id":19,"left_children":[1,3,5,7,9,11,13,15,17,19,21,23,25,27,29,-1,-1,-1,-1,-1,-1,-1,-1,-1,-1,-1,-1,-1,-1,-1,-1],"loss_changes":[2.386615E1,4.9801674E0,1.3495136E1,5.775268E0,3.2035656E0,1.061331E1,6.2928104E0,3.2262394E0,2.8893695E0,5.4692307E0,6.789314E0,1.3224853E1,7.6026325E0,2.4214811E0,5.3835654E0,0E0,0E0,0E0,0E0,0E0,0E0,0E0,0E0,0E0,0E0,0E0,0E0,0E0,0E0,0E0,0E0],"parents":[2147483647,0,0,1,1,2,2,3,3,4,4,5,5,6,6,7,7,8,8,9,9,10,10,11,11,12,12,13,13,14,14],"right_children":[2,4,6,8,10,12,14,16,18,20,22,24,26,28,30,-1,-1,-1,-1,-1,-1,-1,-1,-1,-1,-1,-1,-1,-1,-1,-1],"split_conditions":[8.967125E-2,-4.797128E-3,1.9286019E-1,5.2E-1,6.384852E-2,4.4E-1,1.0689955E-1,-5.037673E-3,2.976E2,-1.5994448E-3,5.6E-1,-3.997501E-4,-2.5331838E-2,2.0719929E-1,4.9857125E-1,-1.2406747E-2,4.1706815E-2,6.1603636E-2,-9.586311E-3,-4.074336E-2,-1.3178085E-2,-5.0724824E-3,-4.3598402E-2,1.8359257E-2,-3.6927458E-2,2.39829E-2,8.072977E-3,-5.6042768E-2,-2.117802E-2,4.5887403E-2,-1.4738686E-2],"split_indices":[8,6,8,0,8,1,5,6,9,6,1,6,5,8,5,0,0,0,0,0,0,0,0,0,0,0,0,0,0,0,0],"split_type":[0,0,0,0,0,0,0,0,0,0,0,0,0,0,0,0,0,0,0,0,0,0,0,0,0,0,0,0,0,0,0],"sum_hessian":[6.4371313E2,2.5034012E2,3.93373E2,2.7243654E1,2.2309647E2,3.5489053E2,3.848247E1,2.0644737E1,6.598917E0,9.061828E1,1.324782E2,4.1805347E1,3.1308517E2,2.4289978E1,1.4192493E1,1.8424477E1,2.2202604E0,5.053227E0,1.5456898E0,2.4706968E1,6.591131E1,1.207949E2,1.1683298E1,1.8934734E1,2.2870615E1,1.26582664E2,1.8650252E2,7.9956903E0,1.6294287E1,4.633207E0,9.559287E0],"tree_param":{"num_deleted":"0","num_feature":"12","num_nodes":"31","size_leaf_vector":"1"}},{"base_weights":[1.1561282E-2,-3.2052135E-1,9.750687E-2,-1.7668936E-1,-6.073022E-1,-3.8142386E-1,1.5225232E-1,-4.2966405E-1,-4.166337E-2,-7.024466E-1,1.3120817E-1,-9.0578526E-1,2.2971049E-1,2.3311718E-1,-1.6588503E-1,-3.0062256E-2,1.614303E-2,-1.8765682E-2,8.403721E-3,-5.5482883E-2,-2.264206E-2,-1.6593179E-2,4.814364E-2,2.771926E-3,-4.829639E-2,-9.5067156E-4,5.2388202E-2,1.9414835E-2,3.6528066E-3,5.18424E-2,-3.0243387E-2],"categories":[],"categories_nodes":[],"categories_segments":[],"categories_sizes":[],"default_left":[0,0,0,0,0,0,0,0,0,0,0,0,0,0,0,0,0,0,0,0,0,0,0,0,0,0,0,0,0,0,0],"id":20,"left_children":[1,3,5,7,9,11,13,15,17,19,21,23,25,27,29,-1,-1,-1,-1,-1,-1,-1,-1,-1,-1,-1,-1,-1,-1,-1,-1],"loss_changes":[1.8514841E1,5.394438E0,1.3567116E1,3.0645292E0,3.19376E0,1.7236685E1,1.1952299E1,4.235095E0,4.257865E0,3.4880543E0,2.5842133E0,1.7186108E0,5.175171E0,9.153219E0,5.0488712E1,0E0,0E0,0E0,0E0,0E0,0E0,0E0,0E0,0E0,0E0,0E0,0E0,0E0,0E0,0E0,0E0],"parents":[2147483647,0,0,1,1,2,2,3,3,4,4,5,5,6,6,7,7,8,8,9,9,10,10,11,11,12,12,13,13,14,14],"right_children":[2,4,6,8,10,12,14,16,18,20,22,24,26,28,30,-1,-1,-1,-1,-1,-1,-1,-1,-1,-1,-1,-1,-1,-1,-1,-1],"split_conditions":[6.944343E-2,4E0,4.3E-1,1E0,2E-2,3.9971995E-4,4.397923E-3,2.3990085E-3,8.341E1,-1.1995607E-3,1.6691E2,1E0,5.994697E-3,4.95E-1,4.95E-1,-3.0062256E-2,1.614303E-2,-1.8765682E-2,8.403721E-3,-5.5482883E-2,-2.264206E-2,-1.6593179E-2,4.814364E-2,2.771926E-3,-4.829639E-2,-9.5067156E-4,5.2388202E-2,1.9414835E-2,3.6528066E-3,5.18424E-2,-3.0243387E-2],"split_indices":[8,11,0,7,2,6,6,6,3,6,3,11,6,1,0,0,0,0,0,0,0,0,0,0,0,0,0,0,0,0,0],"split_type":[0,0,0,0,0,0,0,0,0,0,0,0,0,0,0,0,0,0,0,0,0,0,0,0,0,0,0,0,0,0,0],"sum_hessian":[6.4661444E2,1.3238121E2,5.142332E2,8.9239944E1,4.314127E1,5.213883E1,4.6209442E2,3.029653E1,5.8943417E1,3.8260845E1,4.8804235E0,2.780211E1,2.4336716E1,3.6865588E2,9.343853E1,2.4835E1,5.461531E0,2.2446365E1,3.649705E1,1.323058E1,2.5030266E1,3.5209303E0,1.3594931E0,1.6417146E0,2.6160395E1,1.9411526E1,4.925191E0,1.8645827E2,1.8219762E2,2.4620607E1,6.8817924E1],"tree_param":{"num_deleted":"0","num_feature":"12","num_nodes":"31","size_leaf_vector":"1"}},{"base_weights":[1.6266886E-2,-1.4059484E-1,1.6945337E-1,-1.0384388E-1,-5.975025E-1,2.372696E-1,-3.141893E-1,-3.73274E-1,-3.490962E-2,-7.003886E-1,1.6218662E-2,-2.557678E-1,3.2562852E-1,-5.745356E-1,5.425651E-2,-2.7812341E-2,-9.135363E-4,-1.4969925E-2,2.540291E-3,-1.8618397E-2,-4.4141438E-2,3.562307E-2,-3.0694986E-2,1.9047294E-2,-2.15116E-2,-3.5702758E-2,-9.270051E-4,1.618938E-2,-4.125264E-2],"categories":[],"categories_nodes":[],"categories_segments":[],"categories_sizes":[],"default_left":[0,0,0,0,0,0,0,0,0,0,0,0,0,0,0,0,0,0,0,0,0,0,0,0,0,0,0,0,0],"id":21,"left_children":[1,3,5,7,9,11,13,15,17,19,-1,21,23,25,27,-1,-1,-1,-1,-1,-1,-1,-1,-1,-1,-1,-1,-1,-1],"loss_changes":[1.5395871E1,5.2545404E0,1.0704917E1,5.4522047E0,2.4429016E0,1.2491276E1,3.8957202E0,3.8771448E0,5.352191E0,9.478426E-1,0E0,1.5641236E1,1.0281366E1,1.8247004E0,4.4370723E0,0E0,0E0,0E0,0E0,0E0,0E0,0E0,0E0,0E0,0E0,0E0,0E0,0E0,0E0],"parents":[2147483647,0,0,1,1,2,2,3,3,4,4,5,5,6,6,7,7,8,8,9,9,11,11,12,12,13,13,14,14],"right_children":[2,4,6,8,10,12,14,16,18,20,-1,22,24,26,28,-1,-1,-1,-1,-1,-1,-1,-1,-1,-1,-1,-1,-1,-1],"split_conditions":[1.0074012E-1,5.7E-1,1.9286019E-1,5.4686826E-2,5.5972794E-3,4.5E-1,1.2667136E-3,1.205994E-1,4.7E-1,-1.2587856E-1,1.6218662E-2,-1.9991628E-3,6E-1,2.988E2,5.5E-1,-2.7812341E-2,-9.135363E-4,-1.4969925E-2,2.540291E-3,-1.8618397E-2,-4.4141438E-2,3.562307E-2,-3.0694986E-2,1.9047294E-2,-2.15116E-2,-3.5702758E-2,-9.270051E-4,1.618938E-2,-4.125264E-2],"split_indices":[8,1,8,8,6,1,5,5,1,5,0,6,1,9,1,0,0,0,0,0,0,0,0,0,0,0,0,0,0],"split_type":[0,0,0,0,0,0,0,0,0,0,0,0,0,0,0,0,0,0,0,0,0,0,0,0,0,0,0,0,0],"sum_hessian":[6.3872644E2,3.1561816E2,3.2310828E2,2.9325754E2,2.2360628E1,2.8382047E2,3.928781E1,5.8845295E1,2.3441223E2,2.0331757E1,2.0288713E0,4.2846268E1,2.4097418E2,2.2693254E1,1.6594555E1,3.8457153E1,2.0388142E1,5.676419E1,1.7764804E2,8.353506E0,1.1978251E1,1.1301813E1,3.1544453E1,2.2500342E2,1.5970774E1,1.7913757E1,4.779496E0,1.3184833E1,3.4097223E0],"tree_param":{"num_deleted":"0","num_feature":"12","num_nodes":"29","size_leaf_vector":"1"}},{"base_weights":[-1.7852608E-2,-4.47792E-1,1.3352889E-2,-7.09415E-1,5.181831E-1,5.37327E-2,-3.0235034E-1,-7.5935656E-1,1.5127909E-2,-1.3487984E-1,1.009979E0,-1.021151E-2,1.7747624E-1,1.4450167E-1,-7.8778195E-1,-2.3972703E-2,-4.6725836E-2,-3.345064E-2,3.240395E-2,1.9356418E-2,6.33659E-2,6.7569995E-3,-7.2882767E-3,6.470801E-2,7.632423E-3,5.501731E-2,-3.1984784E-3,-4.5591734E-2,-1.0377813E-2],"categories":[],"categories_nodes":[],"categories_segments":[],"categories_sizes":[],"default_left":[0,0,0,0,0,0,0,0,0,0,0,0,0,0,0,0,0,0,0,0,0,0,0,0,0,0,0,0,0],"id":22,"left_children":[1,3,5,7,9,11,13,15,-1,17,19,21,23,25,27,-1,-1,-1,-1,-1,-1,-1,-1,-1,-1,-1,-1,-1,-1],"loss_changes":[8.607928E0,1.1339557E1,7.648918E0,1.977644E0,3.293505E0,4.2088737E0,1.4874374E1,1.1817837E0,0E0,2.5685217E0,4.2707443E-1,6.945078E0,4.826096E0,7.299079E0,2.169527E0,0E0,0E0,0E0,0E0,0E0,0E0,0E0,0E0,0E0,0E0,0E0,0E0,0E0,0E0],"parents":[2147483647,0,0,1,1,2,2,3,3,4,4,5,5,6,6,7,7,9,9,10,10,11,11,12,12,13,13,14,14],"right_children":[2,4,6,8,10,12,14,16,-1,18,20,22,24,26,28,-1,-1,-1,-1,-1,-1,-1,-1,-1,-1,-1,-1,-1,-1],"split_conditions":[4.1E-1,2.8232029E-3,5.6E-1,6E-2,3.7E-1,1.4974E2,1.7715883E-4,4E0,1.5127909E-2,5.9978734E-3,8.552E1,9.731E1,-1.0144902E-2,-6.909737E-3,1.9E1,-2.3972703E-2,-4.6725836E-2,-3.345064E-2,3.240395E-2,1.9356418E-2,6.33659E-2,6.7569995E-3,-7.2882767E-3,6.470801E-2,7.632423E-3,5.501731E-2,-3.1984784E-3,-4.5591734E-2,-1.0377813E-2],"split_indices":[0,6,0,2,0,4,6,11,0,6,4,4,6,6,10,0,0,0,0,0,0,0,0,0,0,0,0,0,0],"split_type":[0,0,0,0,0,0,0,0,0,0,0,0,0,0,0,0,0,0,0,0,0,0,0,0,0,0,0,0,0],"sum_hessian":[6.4014825E2,4.241521E1,5.977331E2,3.3584766E1,8.830443E0,5.3068585E2,6.704722E1,3.2243176E1,1.3415933E0,4.10504E0,4.725403E0,3.5048892E2,1.8019693E2,3.5276573E1,3.1770649E1,1.3849377E1,1.8393797E1,2.5267968E0,1.5782433E0,2.1137464E0,2.6116564E0,1.6913373E2,1.813552E2,2.8072941E0,1.7738963E2,5.550277E0,2.9726295E1,2.5703669E1,6.06698E0],"tree_param":{"num_deleted":"0","num_feature":"12","num_nodes":"29","size_leaf_vector":"1"}},{"base_weights":[1.2974411E-2,-3.414231E-1,9.323414E-2,-4.514546E-1,1.2799177E-1,1.3604945E-1,-3.584373E-1,-3.525391E-1,-7.712071E-1,-5.0035357E-2,2.6938152E-1,2.5304595E-1,-7.4695036E-2,-7.191709E-1,4.3878642E-1,1.488883E-2,-1.9498149E-2,-4.309126E-2,1.5733863E-3,3.4871455E-2,-1.9887446E-4,2.788033E-2,-2.4808084E-3,-2.3038507E-2,4.538294E-2,-1.6344322E-2,-5.1299125E-2,-1.9792946E-2,3.844117E-2],"categories":[],"categories_nodes":[],"categories_segments":[],"categories_sizes":[],"default_left":[0,0,0,0,0,0,0,0,0,0,0,0,0,0,0,0,0,0,0,0,0,0,0,0,0,0,0,0,0],"id":23,"left_children":[1,3,5,7,9,11,13,15,17,-1,19,21,23,25,27,-1,-1,-1,-1,-1,-1,-1,-1,-1,-1,-1,-1,-1,-1],"loss_changes":[1.842862E1,6.237344E0,1.02620535E1,2.8006382E0,4.019539E0,1.1931127E1,1.3545574E1,1.9666014E0,1.6352901E0,0E0,2.538403E0,2.8685257E1,6.6121284E1,3.5222416E0,4.4231987E0,0E0,0E0,0E0,0E0,0E0,0E0,0E0,0E0,0E0,0E0,0E0,0E0,0E0,0E0],"parents":[2147483647,0,0,1,1,2,2,3,3,4,4,5,5,6,6,7,7,8,8,10,10,11,11,12,12,13,13,14,14],"right_children":[2,4,6,8,10,12,14,16,18,-1,20,22,24,26,28,-1,-1,-1,-1,-1,-1,-1,-1,-1,-1,-1,-1,-1,-1],"split_conditions":[6.751007E-2,2E1,5.7E-1,5E0,2.759764E-2,1.5993769E-3,1.5992875E-3,-6.909737E-3,6.5351635E-2,-5.0035357E-2,4.8027117E-2,4.95E-1,5E-1,4E0,8.967125E-2,1.488883E-2,-1.9498149E-2,-4.309126E-2,1.5733863E-3,3.4871455E-2,-1.9887446E-4,2.788033E-2,-2.4808084E-3,-2.3038507E-2,4.538294E-2,-1.6344322E-2,-5.1299125E-2,-1.9792946E-2,3.844117E-2],"split_indices":[8,10,1,11,8,6,6,6,8,0,8,1,1,11,8,0,0,0,0,0,0,0,0,0,0,0,0,0,0],"split_type":[0,0,0,0,0,0,0,0,0,0,0,0,0,0,0,0,0,0,0,0,0,0,0,0,0,0,0,0,0],"sum_hessian":[6.4577563E2,1.1864202E2,5.2713367E2,9.6144E1,2.249803E1,4.8212985E2,4.5003773E1,7.503457E1,2.1109426E1,1.8279616E0,2.0670067E1,3.0989078E2,1.7223907E2,3.105134E1,1.3952434E1,3.7045023E0,7.133006E1,1.8901814E1,2.2076135E0,7.451141E0,1.3218926E1,1.5404109E2,1.558497E2,1.2402639E2,4.821269E1,1.4533923E1,1.6517418E1,3.8971972E0,1.0055236E1],"tree_param":{"num_deleted":"0","num_feature":"12","num_nodes":"29","size_leaf_vector":"1"}},{"base_weights":[1.1148971E-2,-2.3576197E-1,1.7114945E-1,-2.0346278E-1,-7.5366265E-1,2.3983698E-1,-3.6978874E-1,-3.4150502E-1,-7.455839E-2,-1.8527104E-1,-9.030085E-1,-2.4590802E-1,3.1619948E-1,-9.55408E-2,-8.368941E-1,-2.0168116E-2,1.5376048E-2,-6.0124625E-2,-2.4419918E-3,2.8330702E-2,-3.131519E-2,-5.3055134E-2,-5.75804E-3,-2.0279566E-2,8.7265467E-4,1.9491123E-2,-4.907557E-3,-2.5348684E-2,2.9017558E-2,-7.875237E-4,-4.963864E-2],"categories":[],"categories_nodes":[],"categories_segments":[],"categories_sizes":[],"default_left":[0,0,0,0,0,0,0,0,0,0,0,0,0,0,0,0,0,0,0,0,0,0,0,0,0,0,0,0,0,0,0],"id":24,"left_children":[1,3,5,7,9,11,13,15,17,19,21,23,25,27,29,-1,-1,-1,-1,-1,-1,-1,-1,-1,-1,-1,-1,-1,-1,-1,-1],"loss_changes":[2.5320503E1,4.062682E0,1.453748E1,4.2204494E0,1.057271E0,1.2899342E1,5.5832324E0,4.738634E0,3.5577717E0,1.7674669E0,1.2685814E0,2.0055442E0,9.163815E0,8.353989E0,2.0611458E0,0E0,0E0,0E0,0E0,0E0,0E0,0E0,0E0,0E0,0E0,0E0,0E0,0E0,0E0,0E0,0E0],"parents":[2147483647,0,0,1,1,2,2,3,3,4,4,5,5,6,6,7,7,8,8,9,9,10,10,11,11,12,12,13,13,14,14],"right_children":[2,4,6,8,10,12,14,16,18,20,22,24,26,28,30,-1,-1,-1,-1,-1,-1,-1,-1,-1,-1,-1,-1,-1,-1,-1,-1],"split_conditions":[8.967125E-2,5.9E-1,5.6E-1,6.751007E-2,5.4E1,4.4E-1,1.5591933E-1,2.2E1,-9.3204194E-1,2.4884157E-1,2.3586765E-1,4E0,1.7764732E-1,1.2753977E-1,2E0,-2.0168116E-2,1.5376048E-2,-6.0124625E-2,-2.4419918E-3,2.8330702E-2,-3.131519E-2,-5.3055134E-2,-5.75804E-3,-2.0279566E-2,8.7265467E-4,1.9491123E-2,-4.907557E-3,-2.5348684E-2,2.9017558E-2,-7.875237E-4,-4.963864E-2],"split_indices":[8,1,1,8,4,1,8,10,5,5,5,11,8,8,11,0,0,0,0,0,0,0,0,0,0,0,0,0,0,0,0],"split_type":[0,0,0,0,0,0,0,0,0,0,0,0,0,0,0,0,0,0,0,0,0,0,0,0,0,0,0,0,0,0,0],"sum_hessian":[6.3890875E2,2.5103731E2,3.8787146E2,2.3761139E2,1.3425922E1,3.4466327E2,4.3208202E1,1.1394242E2,1.2366896E2,3.2598588E0,1.0166063E1,4.6521E1,2.9814227E2,2.7983187E1,1.5225014E1,1.0437334E2,9.569086E0,1.7369292E0,1.2193203E2,1.0999275E0,2.1599312E0,8.178151E0,1.9879128E0,2.8624874E1,1.7896128E1,2.5321034E2,4.4931927E1,1.754998E1,1.04332075E1,2.6047351E0,1.2620278E1],"tree_param":{"num_deleted":"0","num_feature":"12","num_nodes":"31","size_leaf_vector":"1"}},{"base_weights":[3.4066169E-3,-1.7309526E-1,1.8375088E-1,-9.501061E-2,-3.5483068E-1,2.7254856E-1,-1.8833645E-1,-2.3198871E-1,9.347305E-2,-7.6939005E-1,-2.659592E-1,-1.6901521E-1,3.4829286E-1,-3.4178913E-2,-7.734043E-1,-2.6892737E-2,-6.741842E-3,1.2216891E-2,-8.579958E-3,-5.2271667E-3,-4.9503226E-2,-3.0692399E-2,-4.2968723E-3,1.2163905E-2,-1.7165786E-2,2.7278775E-2,1.1589435E-2,2.4456356E-2,-1.4151789E-2,2.2127912E-3,-4.827905E-2],"categories":[],"categories_nodes":[],"categories_segments":[],"categories_sizes":[],"default_left":[0,0,0,0,0,0,0,0,0,0,0,0,0,0,0,0,0,0,0,0,0,0,0,0,0,0,0,0,0,0,0],"id":25,"left_children":[1,3,5,7,9,11,13,15,17,19,21,23,25,27,29,-1,-1,-1,-1,-1,-1,-1,-1,-1,-1,-1,-1,-1,-1,-1,-1],"loss_changes":[2.0552866E1,4.5971346E0,1.0603046E1,5.9500885E0,3.3951464E0,8.695808E0,5.576437E0,3.8875751E0,3.935136E0,2.3495789E0,5.08189E0,2.849109E0,4.947357E0,6.677555E0,2.0711074E0,0E0,0E0,0E0,0E0,0E0,0E0,0E0,0E0,0E0,0E0,0E0,0E0,0E0,0E0,0E0,0E0],"parents":[2147483647,0,0,1,1,2,2,3,3,4,4,5,5,6,6,7,7,8,8,9,9,10,10,11,11,12,12,13,13,14,14],"right_children":[2,4,6,8,10,12,14,16,18,20,22,24,26,28,30,-1,-1,-1,-1,-1,-1,-1,-1,-1,-1,-1,-1,-1,-1,-1,-1],"split_conditions":[1.0220287E-1,4E0,1.7764732E-1,1.25E2,5.0498962E-2,4.5E-1,5.4E-1,2.964E2,2.9977E2,4.9E-1,4.8E-1,0E0,4.95E-1,7.143E1,2E0,-2.6892737E-2,-6.741842E-3,1.2216891E-2,-8.579958E-3,-5.2271667E-3,-4.9503226E-2,-3.0692399E-2,-4.2968723E-3,1.2163905E-2,-1.7165786E-2,2.7278775E-2,1.1589435E-2,2.4456356E-2,-1.4151789E-2,2.2127912E-3,-4.827905E-2],"split_indices":[8,11,8,4,8,1,1,9,4,1,1,7,1,4,11,0,0,0,0,0,0,0,0,0,0,0,0,0,0,0,0],"split_type":[0,0,0,0,0,0,0,0,0,0,0,0,0,0,0,0,0,0,0,0,0,0,0,0,0,0,0,0,0,0,0],"sum_hessian":[6.4368585E2,3.2532874E2,3.1835712E2,2.2862169E2,9.6707054E1,2.5723596E2,6.1121174E1,1.3226729E2,9.635439E1,1.5720095E1,8.098696E1,3.7484207E1,2.1975174E2,4.9212704E1,1.1908469E1,3.079097E1,1.01476326E2,6.1455482E1,3.4898914E1,4.2847557E0,1.1435339E1,2.679543E1,5.419153E1,1.1020468E1,2.646374E1,8.022299E1,1.3952875E2,1.5549374E1,3.366333E1,2.4127176E0,9.495751E0],"tree_param":{"num_deleted":"0","num_feature":"12","num_nodes":"31","size_leaf_vector":"1"}},{"base_weights":[-5.43716E-3,-1.4494929E-1,1.3652179E-1,-1.12898014E-1,-7.077742E-1,2.1106188E-1,-1.797641E-1,6.6981753E-3,-2.3853295E-1,-8.3418393E-1,1.85732E-2,-1.9125603E-1,2.769809E-1,-3.3784796E-2,-7.232888E-1,-1.7544374E-2,6.6914367E-3,4.8938445E-3,-2.766349E-2,-2.4441743E-2,-5.178212E-2,4.2480435E-2,-3.2876432E-2,-6.9133914E-4,2.029583E-2,-1.4575201E-2,1.609217E-2,-6.73207E-2,1.0500771E-2],"categories":[],"categories_nodes":[],"categories_segments":[],"categories_sizes":[],"default_left":[0,0,0,0,0,0,0,0,0,0,0,0,0,0,0,0,0,0,0,0,0,0,0,0,0,0,0,0,0],"id":26,"left_children":[1,3,5,7,9,11,13,15,17,19,-1,21,23,25,27,-1,-1,-1,-1,-1,-1,-1,-1,-1,-1,-1,-1,-1,-1],"loss_changes":[1.2605755E1,5.7105947E0,7.476165E0,4.5827017E0,2.643445E0,6.8365345E0,4.7927876E0,7.1919756E0,1.5800511E1,5.804596E-1,0E0,1.832233E1,8.261555E0,4.5763974E0,7.729756E0,0E0,0E0,0E0,0E0,0E0,0E0,0E0,0E0,0E0,0E0,0E0,0E0,0E0,0E0],"parents":[2147483647,0,0,1,1,2,2,3,3,4,4,5,5,6,6,7,7,8,8,9,9,11,11,12,12,13,13,14,14],"right_children":[2,4,6,8,10,12,14,16,18,20,-1,22,24,26,28,-1,-1,-1,-1,-1,-1,-1,-1,-1,-1,-1,-1,-1,-1],"split_conditions":[1.0220287E-1,5.9E-1,1.7764732E-1,5E-1,5.5972794E-3,4.5E-1,5.4E-1,-2.7973375E-3,0E0,8E0,1.85732E-2,-1.7660091E-3,-2.3989324E-3,1.2667136E-3,1.5993398E-3,-1.7544374E-2,6.6914367E-3,4.8938445E-3,-2.766349E-2,-2.4441743E-2,-5.178212E-2,4.2480435E-2,-3.2876432E-2,-6.9133914E-4,2.029583E-2,-1.4575201E-2,1.609217E-2,-6.73207E-2,1.0500771E-2],"split_indices":[8,1,8,0,6,1,1,6,6,10,0,6,6,5,6,0,0,0,0,0,0,0,0,0,0,0,0,0,0],"split_type":[0,0,0,0,0,0,0,0,0,0,0,0,0,0,0,0,0,0,0,0,0,0,0,0,0,0,0,0,0],"sum_hessian":[6.3449457E2,3.1999448E2,3.145001E2,3.0388943E2,1.6105043E1,2.5478645E2,5.9713642E1,1.561713E2,1.4771812E2,1.4619718E1,1.4853252E0,3.56015E1,2.1918495E2,4.7908566E1,1.1805077E1,4.0498722E1,1.1567258E2,7.173376E1,7.598437E1,6.648701E0,7.971017E0,1.0759913E1,2.4841585E1,6.7602905E1,1.5158205E2,2.7882666E1,2.0025902E1,6.813427E0,4.9916496E0],"tree_param":{"num_deleted":"0","num_feature":"12","num_nodes":"29","size_leaf_vector":"1"}},{"base_weights":[-2.6298056E-3,-4.7136748E-1,2.5723388E-2,-6.8108183E-1,7.727421E-1,7.0389755E-2,-2.3506321E-1,-3.946772E-1,-8.325113E-1,9.4275403E-1,-6.297865E-4,9.463137E-2,-3.5362324E-1,7.3616403E-1,-6.523003E-1,1.1229068E-2,-2.5457958E-2,-4.851409E-2,-1.813684E-2,1.3535772E-2,5.6113005E-2,1.2055041E-2,-1.2257573E-3,5.3011324E-2,-2.6614208E-2,-2.7133409E-2,4.277665E-2,-4.0297832E-2,-1.3073622E-2],"categories":[],"categories_nodes":[],"categories_segments":[],"categories_sizes":[],"default_left":[0,0,0,0,0,0,0,0,0,0,0,0,0,0,0,0,0,0,0,0,0,0,0,0,0,0,0,0,0],"id":27,"left_children":[1,3,5,7,9,11,13,15,17,19,-1,21,23,25,27,-1,-1,-1,-1,-1,-1,-1,-1,-1,-1,-1,-1,-1,-1],"loss_changes":[8.63132E0,1.0191145E1,7.1511145E0,1.0692968E0,7.8786874E-1,5.416435E0,3.6868168E1,1.0394375E0,9.542618E-1,2.7413225E-1,0E0,8.6646595E0,7.7716975E0,4.655134E0,3.5931416E0,0E0,0E0,0E0,0E0,0E0,0E0,0E0,0E0,0E0,0E0,0E0,0E0,0E0,0E0],"parents":[2147483647,0,0,1,1,2,2,3,3,4,4,5,5,6,6,7,7,8,8,9,9,11,11,12,12,13,13,14,14],"right_children":[2,4,6,8,10,12,14,16,18,20,-1,22,24,26,28,-1,-1,-1,-1,-1,-1,-1,-1,-1,-1,-1,-1,-1,-1],"split_conditions":[4E-1,5.0928076E-3,5.1969215E-3,6E0,3.8014E2,6E-1,4.95E-1,2E0,1.1995529E-3,5.994697E-3,-6.297865E-4,4.95E-1,-6.796459E-3,5.1979464E-3,1.7E1,1.1229068E-2,-2.5457958E-2,-4.851409E-2,-1.813684E-2,1.3535772E-2,5.6113005E-2,1.2055041E-2,-1.2257573E-3,5.3011324E-2,-2.6614208E-2,-2.7133409E-2,4.277665E-2,-4.0297832E-2,-1.3073622E-2],"split_indices":[0,6,6,10,4,0,0,11,6,6,0,1,6,6,10,0,0,0,0,0,0,0,0,0,0,0,0,0,0],"split_type":[0,0,0,0,0,0,0,0,0,0,0,0,0,0,0,0,0,0,0,0,0,0,0,0,0,0,0,0,0],"sum_hessian":[6.475371E2,3.604317E1,6.1149396E2,3.123121E1,4.811959E0,5.2269855E2,8.8795395E1,1.2048931E1,1.918228E1,3.79086E0,1.0210991E0,4.951658E2,2.7532726E1,2.6453547E1,6.234185E1,1.7298838E0,1.0319047E1,1.4008574E1,5.173706E0,1.327827E0,2.463033E0,2.2165582E2,2.7350998E2,2.5352771E0,2.499745E1,1.95568E0,2.4497868E1,4.3986225E1,1.8355625E1],"tree_param":{"num_deleted":"0","num_feature":"12","num_nodes":"29","size_leaf_vector":"1"}},{"base_weights":[-3.587389E-2,-3.2968485E-1,3.5276264E-2,-2.3186207E-1,-7.427885E-1,2.4073629E-1,-4.4771347E-2,6.480616E-1,-2.7351126E-1,-8.279517E-1,1.3882664E-2,3.9500946E-1,1.759515E-2,1.3382664E-2,-4.6302807E-1,-6.0084765E-3,5.6959268E-2,-2.9789751E-2,-7.886437E-3,-4.7430348E-2,-1.1121671E-2,3.9630983E-2,1.999757E-3,-1.3199043E-2,2.9224494E-2,-1.0744429E-2,6.8001198E-3,-3.0491432E-2,4.4316884E-2],"categories":[],"categories_nodes":[],"categories_segments":[],"categories_sizes":[],"default_left":[0,0,0,0,0,0,0,0,0,0,0,0,0,0,0,0,0,0,0,0,0,0,0,0,0,0,0,0,0],"id":28,"left_children":[1,3,5,7,9,11,13,15,17,19,-1,21,23,25,27,-1,-1,-1,-1,-1,-1,-1,-1,-1,-1,-1,-1,-1,-1],"loss_changes":[1.3445885E1,4.8945646E0,8.534407E0,3.945766E0,2.2766466E0,5.000515E0,9.098246E0,2.0022612E0,3.5959268E0,1.3954859E0,0E0,1.2101544E1,9.81249E0,9.242126E0,9.584543E0,0E0,0E0,0E0,0E0,0E0,0E0,0E0,0E0,0E0,0E0,0E0,0E0,0E0,0E0],"parents":[2147483647,0,0,1,1,2,2,3,3,4,4,5,5,6,6,7,7,8,8,9,9,11,11,12,12,13,13,14,14],"right_children":[2,4,6,8,10,12,14,16,18,20,-1,22,24,26,28,-1,-1,-1,-1,-1,-1,-1,-1,-1,-1,-1,-1,-1,-1],"split_conditions":[6.751007E-2,5E0,2E0,-6.909737E-3,6.5351635E-2,7.996872E-4,5.6E-1,5.3491995E-2,7E0,5.3153515E-1,1.3882664E-2,4.95E-1,5E-1,4.8E-1,5.994697E-3,-6.0084765E-3,5.6959268E-2,-2.9789751E-2,-7.886437E-3,-4.7430348E-2,-1.1121671E-2,3.9630983E-2,1.999757E-3,-1.3199043E-2,2.9224494E-2,-1.0744429E-2,6.8001198E-3,-3.0491432E-2,4.4316884E-2],"split_indices":[8,11,11,6,8,6,1,8,10,5,0,1,1,1,6,0,0,0,0,0,0,0,0,0,0,0,0,0,0],"split_type":[0,0,0,0,0,0,0,0,0,0,0,0,0,0,0,0,0,0,0,0,0,0,0,0,0,0,0,0,0],"sum_hessian":[6.4164294E2,1.2438162E2,5.172613E2,1.01829666E2,2.2551962E1,1.4446144E2,3.7279987E2,3.9440312E0,9.7885635E1,2.0988918E1,1.5630425E0,8.49555E1,5.9505936E1,3.2814316E2,4.4656704E1,1.8326538E0,2.1113775E0,2.4775782E1,7.310985E1,1.7029104E1,3.9598138E0,3.949222E1,4.5463276E1,4.011513E1,1.9390806E1,1.1440749E2,2.1373567E2,4.0769375E1,3.8873305E0],"tree_param":{"num_deleted":"0","num_feature":"12","num_nodes":"29","size_leaf_vector":"1"}},{"base_weights":[1.7036988E-3,-2.3481297E-1,6.2702924E-2,-3.354186E-1,1.9742951E-1,1.301408E-1,-2.0767032E-1,-3.9260533E-1,1.2143953E-1,-8.0893797E-1,3.6524078E-1,-5.8170177E-2,3.7120065E-1,8.739596E-1,-7.047581E-1,-1.0007506E-2,-2.9325916E-2,-2.051261E-2,2.3605693E-2,-4.8249573E-2,-1.1517042E-2,-3.4053687E-3,2.9132236E-2,-4.0558722E-2,9.906748E-3,4.5913275E-2,1.952677E-3,3.991704E-3,5.561462E-2,-4.6061366E-3,-4.0996086E-2],"categories":[],"categories_nodes":[],"categories_segments":[],"categories_sizes":[],"default_left":[0,0,0,0,0,0,0,0,0,0,0,0,0,0,0,0,0,0,0,0,0,0,0,0,0,0,0,0,0,0,0],"id":29,"left_children":[1,3,5,7,9,11,13,15,17,19,21,23,25,27,29,-1,-1,-1,-1,-1,-1,-1,-1,-1,-1,-1,-1,-1,-1,-1,-1],"loss_changes":[9.196918E0,5.7498426E0,9.266696E0,2.8273344E0,4.569229E0,1.8460575E1,5.5214508E1,3.4202585E0,2.5429373E0,1.32375E-1,2.1480215E0,4.4340828E1,3.235921E1,6.0473003E0,4.872162E0,0E0,0E0,0E0,0E0,0E0,0E0,0E0,0E0,0E0,0E0,0E0,0E0,0E0,0E0,0E0,0E0],"parents":[2147483647,0,0,1,1,2,2,3,3,4,4,5,5,6,6,7,7,8,8,9,9,10,10,11,11,12,12,13,13,14,14],"right_children":[2,4,6,8,10,12,14,16,18,20,22,24,26,28,30,-1,-1,-1,-1,-1,-1,-1,-1,-1,-1,-1,-1,-1,-1,-1,-1],"split_conditions":[6.944343E-2,2E1,4.397923E-3,4.143334E-3,3.40737E-2,5E-1,4.95E-1,-3.9983194E-4,2.97E2,2.759764E-2,1E0,-4.398042E-3,-1.9981798E-3,8.967125E-2,8.83462E-2,-1.0007506E-2,-2.9325916E-2,-2.051261E-2,2.3605693E-2,-4.8249573E-2,-1.1517042E-2,-3.4053687E-3,2.9132236E-2,-4.0558722E-2,9.906748E-3,4.5913275E-2,1.952677E-3,3.991704E-3,5.561462E-2,-4.6061366E-3,-4.0996086E-2],"split_indices":[8,10,6,6,8,0,0,6,9,8,7,6,6,8,8,0,0,0,0,0,0,0,0,0,0,0,0,0,0,0,0],"split_type":[0,0,0,0,0,0,0,0,0,0,0,0,0,0,0,0,0,0,0,0,0,0,0,0,0,0,0,0,0,0,0],"sum_hessian":[6.354442E2,1.2969994E2,5.057443E2,1.0539335E2,2.430659E1,4.0519672E2,1.0054757E2,9.379349E1,1.1599857E1,2.9278276E0,2.1378761E1,2.2791383E2,1.7728288E2,3.14205E1,6.912707E1,4.8093597E1,4.5699894E1,4.5425525E0,7.057305E0,1.7799457E0,1.1478819E0,7.3716607E0,1.4007101E1,5.732694E1,1.705869E2,6.630697E1,1.1097592E2,7.561276E0,2.3859224E1,1.1223164E1,5.7903904E1],"tree_param":{"num_deleted":"0","num_feature":"12","num_nodes":"31","size_leaf_vector":"1"}},{"base_weights":[9.445025E-3,-1.337969E-1,1.06853895E-1,-7.3874034E-2,-4.132568E-1,1.751758E-1,-2.5844482E-1,-9.4291776E-1,-5.0279513E-2,-1.2148066E0,-2.570602E-1,-3.5942686E-1,2.1232931E-1,-5.070361E-1,8.980708E-2,-1.5435549E-2,-5.7009783E-2,3.1169435E-2,-4.2989566E-3,-1.50650535E-2,-6.6867605E-2,-2.5070265E-2,4.6886927E-3,-3.3654224E-2,-2.302436E-3,1.5350111E-2,-3.2594365E-3,-3.4415253E-2,1.4026867E-2,3.9383672E-2,-1.3525781E-2],"categories":[],"categories_nodes":[],"categories_segments":[],"categories_sizes":[],"default_left":[0,0,0,0,0,0,0,0,0,0,0,0,0,0,0,0,0,0,0,0,0,0,0,0,0,0,0,0,0,0,0],"id":30,"left_children":[1,3,5,7,9,11,13,15,17,19,21,23,25,27,29,-1,-1,-1,-1,-1,-1,-1,-1,-1,-1,-1,-1,-1,-1,-1,-1],"loss_changes":[8.951116E0,4.318384E0,9.574072E0,4.362372E0,5.4012833E0,6.4766617E0,5.288369E0,3.5219002E-1,5.114473E0,4.0017986E-1,3.4298391E0,2.0637004E0,7.9525967E0,5.259267E0,6.769429E0,0E0,0E0,0E0,0E0,0E0,0E0,0E0,0E0,0E0,0E0,0E0,0E0,0E0,0E0,0E0,0E0],"parents":[2147483647,0,0,1,1,2,2,3,3,4,4,5,5,6,6,7,7,8,8,9,9,10,10,11,11,12,12,13,13,14,14],"right_children":[2,4,6,8,10,12,14,16,18,20,22,24,26,28,30,-1,-1,-1,-1,-1,-1,-1,-1,-1,-1,-1,-1,-1,-1,-1,-1],"split_conditions":[9.0495184E-2,5E0,1.7764732E-1,2.759764E-2,-6.7540354E-1,4E-1,1.2667136E-3,1.7269E2,3.983912E-2,4.4E-1,7.157098E-2,1.2860338E-1,5.3E-1,2.988E2,3.6569467E-1,-1.5435549E-2,-5.7009783E-2,3.1169435E-2,-4.2989566E-3,-1.50650535E-2,-6.6867605E-2,-2.5070265E-2,4.6886927E-3,-3.3654224E-2,-2.302436E-3,1.5350111E-2,-3.2594365E-3,-3.4415253E-2,1.4026867E-2,3.9383672E-2,-1.3525781E-2],"split_indices":[8,11,8,8,5,0,5,3,8,0,8,8,0,9,5,0,0,0,0,0,0,0,0,0,0,0,0,0,0,0,0],"split_type":[0,0,0,0,0,0,0,0,0,0,0,0,0,0,0,0,0,0,0,0,0,0,0,0,0,0,0,0,0,0,0],"sum_hessian":[6.394928E2,2.58698E2,3.807948E2,2.1406229E2,4.463572E1,3.2123468E2,5.9560135E1,4.628273E0,2.0943402E2,6.17422E0,3.8461502E1,2.0310625E1,3.0092404E2,3.4486694E1,2.5073442E1,1.7066393E0,2.921634E0,9.711499E0,1.9972252E2,1.1393933E0,5.0348268E0,2.2418516E1,1.6042984E1,9.577125E0,1.0733501E1,2.2429984E2,7.6624214E1,2.8136745E1,6.349947E0,8.133878E0,1.6939564E1],"tree_param":{"num_deleted":"0","num_feature":"12","num_nodes":"31","size_leaf_vector":"1"}},{"base_weights":[-1.20401075E-2,-1.6180123E-1,1.4406595E-1,-1.0048885E-1,-4.406938E-1,2.6334915E-1,-8.7448694E-2,1.5122041E-1,-1.9064923E-1,-5.7698693E-2,-3.406603E-1,-5.6432758E-2,3.3619863E-1,3.9394918E-1,-1.6830072E-1,1.5870921E-2,-7.823878E-3,-3.741507E-2,-6.9711334E-3,3.596817E-2,-2.2895584E-2,8.393764E-3,-3.449833E-2,1.4298032E-2,3.6813885E-2,-5.564224E-3,5.516792E-2,-4.481168E-3,-2.4486497E-2],"categories":[],"categories_nodes":[],"categories_segments":[],"categories_sizes":[],"default_left":[0,0,0,0,0,0,0,0,0,0,0,0,0,0,0,0,0,0,0,0,0,0,0,0,0,0,0,0,0],"id":31,"left_children":[1,3,5,7,9,11,13,15,17,-1,19,21,23,25,27,-1,-1,-1,-1,-1,-1,-1,-1,-1,-1,-1,-1,-1,-1],"loss_changes":[1.5046763E1,5.5719624E0,8.72674E0,6.168665E0,3.8093252E0,4.870393E0,4.266751E0,3.7269654E0,5.5986543E0,0E0,6.9257016E0,5.7284236E0,3.2014065E0,5.7923326E0,2.3105688E0,0E0,0E0,0E0,0E0,0E0,0E0,0E0,0E0,0E0,0E0,0E0,0E0,0E0,0E0],"parents":[2147483647,0,0,1,1,2,2,3,3,4,4,5,5,6,6,7,7,8,8,10,10,11,11,12,12,13,13,14,14],"right_children":[2,4,6,8,10,12,14,16,18,-1,20,22,24,26,28,-1,-1,-1,-1,-1,-1,-1,-1,-1,-1,-1,-1,-1,-1],"split_conditions":[1.0220287E-1,5E0,1.5591933E-1,-2.817399E-1,-7.009167E-1,4.6E-1,1E0,3.5215E2,4.3E-1,-5.7698693E-2,4.659E1,2.3123E2,2E-2,1.2667136E-3,5.4E-1,1.5870921E-2,-7.823878E-3,-3.741507E-2,-6.9711334E-3,3.596817E-2,-2.2895584E-2,8.393764E-3,-3.449833E-2,1.4298032E-2,3.6813885E-2,-5.564224E-3,5.516792E-2,-4.481168E-3,-2.4486497E-2],"split_indices":[8,11,8,5,5,1,11,4,1,0,3,3,2,5,1,0,0,0,0,0,0,0,0,0,0,0,0,0,0],"split_type":[0,0,0,0,0,0,0,0,0,0,0,0,0,0,0,0,0,0,0,0,0,0,0,0,0,0,0,0,0],"sum_hessian":[6.416151E2,3.2744382E2,3.1417133E2,2.6954642E2,5.789739E1,2.0725165E2,1.0691968E2,7.090816E1,1.9863826E2,5.8252287E0,5.207216E1,3.8495636E1,1.6875601E2,1.4818276E1,9.21014E1,4.6019753E1,2.4888407E1,1.5567105E1,1.8307115E2,4.67471E0,4.739745E1,2.8972645E1,9.522992E0,1.5145282E2,1.7303192E1,9.147007E0,5.67127E0,7.5017845E1,1.7083553E1],"tree_param":{"num_deleted":"0","num_feature":"12","num_nodes":"29","size_leaf_vector":"1"}},{"base_weights":[-3.0548206E-2,-2.1446171E-1,6.839139E-2,-9.688492E-1,-1.9200234E-1,4.1135427E-1,1.7509669E-2,-1.2263667E-2,-5.765141E-2,1.2762368E-1,-2.4328421E-1,4.8655447E-1,-4.5321014E-2,-8.553654E-2,2.2063567E-1,1.4970282E-2,-2.0925825E-2,-6.859805E-3,-1.9637091E-2,6.464036E-4,3.6580034E-2,-1.9290013E-3,-2.4554165E-2,2.1235485E-2,-8.839744E-3],"categories":[],"categories_nodes":[],"categories_segments":[],"categories_sizes":[],"default_left":[0,0,0,0,0,0,0,0,0,0,0,0,0,0,0,0,0,0,0,0,0,0,0,0,0],"id":32,"left_children":[1,3,5,7,9,11,13,-1,-1,15,17,19,-1,21,23,-1,-1,-1,-1,-1,-1,-1,-1,-1,-1],"loss_changes":[1.1578323E1,3.5843554E0,7.2166557E0,5.4164696E-1,3.593566E0,5.73639E0,7.5860953E0,0E0,0E0,3.0060723E0,2.9212685E0,5.9330845E0,0E0,4.5622444E0,9.966314E0,0E0,0E0,0E0,0E0,0E0,0E0,0E0,0E0,0E0,0E0],"parents":[2147483647,0,0,1,1,2,2,3,3,4,4,5,5,6,6,9,9,10,10,11,11,13,13,14,14],"right_children":[2,4,6,8,10,12,14,-1,-1,16,18,20,-1,22,24,-1,-1,-1,-1,-1,-1,-1,-1,-1,-1],"split_conditions":[8.4442206E-2,2.759764E-2,1E0,1.3E1,4.6944622E-2,2.3E1,1.4717E2,-1.2263667E-2,-5.765141E-2,5E0,1.2667136E-3,1.1055096E-1,-4.5321014E-2,5.6E-1,1.413497E-1,1.4970282E-2,-2.0925825E-2,-6.859805E-3,-1.9637091E-2,6.464036E-4,3.6580034E-2,-1.9290013E-3,-2.4554165E-2,2.1235485E-2,-8.839744E-3],"split_indices":[8,8,11,10,8,10,4,0,0,11,5,8,0,1,8,0,0,0,0,0,0,0,0,0,0],"split_type":[0,0,0,0,0,0,0,0,0,0,0,0,0,0,0,0,0,0,0,0,0,0,0,0,0],"sum_hessian":[6.3449396E2,2.2153214E2,4.129618E2,5.186458E0,2.1634569E2,5.2436253E1,3.6052554E2,1.5254002E0,3.661058E0,2.9706219E1,1.8663947E2,5.0202187E1,2.2340655E0,2.3957008E2,1.2095546E2,2.2941895E1,6.7643237E0,1.1027905E2,7.6360405E1,1.7476425E1,3.272576E1,2.1569125E2,2.387883E1,7.987324E1,4.1082226E1],"tree_param":{"num_deleted":"0","num_feature":"12","num_nodes":"25","size_leaf_vector":"1"}},{"base_weights":[-5.5965474E-3,1.600417E-2,-4.4284195E-1,4.8641205E-2,-2.5843516E-1,-5.968174E-1,7.4225664E-1,-1.1978685E-1,1.1135484E-1,6.323443E-1,-4.896026E-1,-8.2282025E-1,-3.6002928E-1,5.024771E-2,-3.677255E-4,3.6217727E-2,-3.0009871E-2,1.4812735E-2,-6.296608E-3,4.361805E-2,-1.8547408E-2,-8.548873E-3,-3.2471895E-2,2.843651E-3,-5.0388604E-2,-3.0497883E-2,1.0353016E-2],"categories":[],"categories_nodes":[],"categories_segments":[],"categories_sizes":[],"default_left":[0,0,0,0,0,0,0,0,0,0,0,0,0,0,0,0,0,0,0,0,0,0,0,0,0,0,0],"id":33,"left_children":[1,3,5,7,9,11,13,15,17,19,21,23,25,-1,-1,-1,-1,-1,-1,-1,-1,-1,-1,-1,-1,-1,-1],"loss_changes":[6.0091953E0,5.4452896E0,5.9084086E0,5.7480335E0,1.3616816E1,1.1519623E0,7.73355E-1,6.0367386E1,1.7417278E1,3.635055E0,2.530673E0,2.1835299E0,2.2513504E0,0E0,0E0,0E0,0E0,0E0,0E0,0E0,0E0,0E0,0E0,0E0,0E0,0E0,0E0],"parents":[2147483647,0,0,1,1,2,2,3,3,4,4,5,5,6,6,7,7,8,8,9,9,10,10,11,11,12,12],"right_children":[2,4,6,8,10,12,14,16,18,20,22,24,26,-1,-1,-1,-1,-1,-1,-1,-1,-1,-1,-1,-1,-1,-1],"split_conditions":[6E-1,5.6E-1,5.994697E-3,-2.7985529E-3,-3.9977217E-3,2.964E2,3.8014E2,4.95E-1,5E-1,6.5E-1,-3.9964725E-4,4.579E1,1.5992875E-3,5.024771E-2,-3.677255E-4,3.6217727E-2,-3.0009871E-2,1.4812735E-2,-6.296608E-3,4.361805E-2,-1.8547408E-2,-8.548873E-3,-3.2471895E-2,2.843651E-3,-5.0388604E-2,-3.0497883E-2,1.0353016E-2],"split_indices":[1,0,6,6,6,9,4,1,0,0,6,4,6,0,0,0,0,0,0,0,0,0,0,0,0,0,0],"split_type":[0,0,0,0,0,0,0,0,0,0,0,0,0,0,0,0,0,0,0,0,0,0,0,0,0,0,0],"sum_hessian":[6.3449243E2,6.05541E2,2.8951426E1,5.4191754E2,6.362348E1,2.6061724E1,2.889703E0,1.4678679E2,3.9513077E2,1.2751496E1,5.0871986E1,1.2068242E1,1.3993482E1,1.8875768E0,1.0021262E0,5.305491E1,9.373187E1,2.2194066E2,1.7319011E2,1.0395172E1,2.3563242E0,1.7685793E1,3.3186195E1,2.2168167E0,9.851425E0,9.660363E0,4.333119E0],"tree_param":{"num_deleted":"0","num_feature":"12","num_nodes":"27","size_leaf_vector":"1"}},{"base_weights":[-1.3726289E-4,2.2978181E-2,-3.83666E-1,-2.3192705E-1,5.5963863E-2,8.796881E-1,-5.259405E-1,-5.0084525E-1,3.9229593E-1,8.926555E-2,-4.4334343E-1,8.030794E-3,5.6195527E-2,-7.423655E-1,-8.068223E-2,-3.4381267E-2,-1.1590394E-2,4.0457924E-3,3.8577374E-2,4.1430797E-3,6.1657287E-2,5.1909465E-2,-3.586195E-2,-4.626444E-2,2.8581712E-2,4.240493E-2,-1.8770738E-2],"categories":[],"categories_nodes":[],"categories_segments":[],"categories_sizes":[],"default_left":[0,0,0,0,0,0,0,0,0,0,0,0,0,0,0,0,0,0,0,0,0,0,0,0,0,0,0],"id":34,"left_children":[1,3,5,7,9,11,13,15,17,19,21,-1,-1,23,25,-1,-1,-1,-1,-1,-1,-1,-1,-1,-1,-1,-1],"loss_changes":[5.581416E0,5.0056844E0,6.8952193E0,1.1649716E1,8.795086E0,5.213213E-1,3.1000137E0,2.2589197E0,2.4297676E0,3.5199761E0,1.4172484E1,0E0,0E0,5.803342E0,3.5614922E0,0E0,0E0,0E0,0E0,0E0,0E0,0E0,0E0,0E0,0E0,0E0,0E0],"parents":[2147483647,0,0,1,1,2,2,3,3,4,4,5,5,6,6,7,7,8,8,9,9,10,10,13,13,14,14],"right_children":[2,4,6,8,10,12,14,16,18,20,22,-1,-1,24,26,-1,-1,-1,-1,-1,-1,-1,-1,-1,-1,-1,-1],"split_conditions":[5.9E-1,4.4E-1,-6.796459E-3,2.3816836E-3,7.709409E-3,1E1,2.97E2,-7.996283E-4,1.4717E2,7E-2,4.9E-1,8.030794E-3,5.6195527E-2,2.1E1,-1.9991999E-3,-3.4381267E-2,-1.1590394E-2,4.0457924E-3,3.8577374E-2,4.1430797E-3,6.1657287E-2,5.1909465E-2,-3.586195E-2,-4.626444E-2,2.8581712E-2,4.240493E-2,-1.8770738E-2],"split_indices":[0,0,6,6,6,10,9,6,4,2,0,0,0,10,6,0,0,0,0,0,0,0,0,0,0,0,0],"split_type":[0,0,0,0,0,0,0,0,0,0,0,0,0,0,0,0,0,0,0,0,0,0,0,0,0,0,0],"sum_hessian":[6.2757587E2,5.927883E2,3.478752E1,6.722889E1,5.2555945E2,2.9964967E0,3.1791025E1,4.712491E1,2.0103983E1,4.934684E2,3.2091038E1,1.1799611E0,1.8165357E0,2.0943718E1,1.0847306E1,2.6896235E1,2.0228672E1,1.1706144E1,8.397839E0,4.917876E2,1.6808077E0,4.5717044E0,2.7519333E1,1.864408E1,2.299639E0,2.1607347E0,8.686572E0],"tree_param":{"num_deleted":"0","num_feature":"12","num_nodes":"27","size_leaf_vector":"1"}},{"base_weights":[-9.8804785E-3,-1.4638859E-1,1.3277082E-1,-1.19660765E-1,-6.2068784E-1,2.4572475E-1,-8.105964E-2,-7.66764E-1,-9.767101E-2,-7.247263E-1,1.5037387E-2,-1.6435722E-1,3.1995854E-1,-3.696164E-1,1.7533237E-1,-5.0590724E-2,1.8254444E-3,3.2625848E-3,-8.255896E-3,4.149869E-3,-4.3660637E-2,1.4015223E-2,-2.3674507E-2,1.0063389E-2,2.4004152E-2,4.7392633E-2,-2.3108292E-2,1.4706711E-2,-1.9092888E-2],"categories":[],"categories_nodes":[],"categories_segments":[],"categories_sizes":[],"default_left":[0,0,0,0,0,0,0,0,0,0,0,0,0,0,0,0,0,0,0,0,0,0,0,0,0,0,0,0,0],"id":35,"left_children":[1,3,5,7,9,11,13,15,17,19,-1,21,23,25,27,-1,-1,-1,-1,-1,-1,-1,-1,-1,-1,-1,-1,-1,-1],"loss_changes":[1.2455587E1,4.068814E0,7.5753202E0,4.345172E0,1.8664203E0,6.291275E0,8.11993E0,2.0177011E0,3.3245173E0,1.9607954E0,0E0,4.541396E0,3.2077255E0,6.723261E0,3.9734821E0,0E0,0E0,0E0,0E0,0E0,0E0,0E0,0E0,0E0,0E0,0E0,0E0,0E0,0E0],"parents":[2147483647,0,0,1,1,2,2,3,3,4,4,5,5,6,6,7,7,8,8,9,9,11,11,12,12,13,13,14,14],"right_children":[2,4,6,8,10,12,14,16,18,20,-1,22,24,26,28,-1,-1,-1,-1,-1,-1,-1,-1,-1,-1,-1,-1,-1,-1],"split_conditions":[1.0220287E-1,5.9E-1,1.5591933E-1,3.9E-1,5.5972794E-3,4.5E-1,1.1E1,1.8E1,-1.9632414E-1,-3.1980572E-3,1.5037387E-2,-3.997501E-4,1.2753977E-1,-9.9698575E-3,5.4E-1,-5.0590724E-2,1.8254444E-3,3.2625848E-3,-8.255896E-3,4.149869E-3,-4.3660637E-2,1.4015223E-2,-2.3674507E-2,1.0063389E-2,2.4004152E-2,4.7392633E-2,-2.3108292E-2,1.4706711E-2,-1.9092888E-2],"split_indices":[8,1,8,1,6,1,10,10,5,6,0,6,8,6,1,0,0,0,0,0,0,0,0,0,0,0,0,0,0],"split_type":[0,0,0,0,0,0,0,0,0,0,0,0,0,0,0,0,0,0,0,0,0,0,0,0,0,0,0,0,0],"sum_hessian":[6.3763367E2,3.2581934E2,3.1181433E2,3.0962363E2,1.6195696E1,2.0393724E2,1.0787709E2,9.062675E0,3.0056094E2,1.4744401E1,1.4512955E0,3.1072521E1,1.7286472E2,5.054714E1,5.7329956E1,6.745304E0,2.3173718E0,8.8006836E1,2.1255411E2,2.358093E0,1.2386308E1,1.27811575E1,1.8291363E1,1.0057293E2,7.229179E1,2.711175E0,4.7835964E1,4.7643673E1,9.686282E0],"tree_param":{"num_deleted":"0","num_feature":"12","num_nodes":"29","size_leaf_vector":"1"}},{"base_weights":[-7.984369E-3,-4.6453646E-1,1.6804738E-2,-5.8138496E-1,4.834329E-2,5.6981675E-2,-2.1192116E-1,-2.4934237E-1,-7.7014863E-1,2.036961E-1,-1.3167035E-2,6.3666666E-1,-5.434037E-1,1.0357814E-2,-2.6664598E-2,-4.7188867E-2,-9.094403E-3,-2.6550556E-2,1.240706E-2,1.3042653E-3,-1.6632881E-2,-4.3637723E-2,3.8444202E-2,-4.7981605E-2,-2.162847E-2],"categories":[],"categories_nodes":[],"categories_segments":[],"categories_sizes":[],"default_left":[0,0,0,0,0,0,0,0,0,0,0,0,0,0,0,0,0,0,0,0,0,0,0,0,0],"id":36,"left_children":[1,3,5,7,-1,9,11,13,15,17,19,21,23,-1,-1,-1,-1,-1,-1,-1,-1,-1,-1,-1,-1],"loss_changes":[7.1715183E0,6.020259E0,5.538115E0,1.7381134E0,0E0,5.2750154E0,2.5678806E1,1.748929E0,1.784771E0,5.544807E0,4.3667703E0,5.8116274E0,2.597372E0,0E0,0E0,0E0,0E0,0E0,0E0,0E0,0E0,0E0,0E0,0E0,0E0],"parents":[2147483647,0,0,1,1,2,2,3,3,5,5,6,6,7,7,8,8,9,9,10,10,11,11,12,12],"right_children":[2,4,6,8,-1,10,12,14,16,18,20,22,24,-1,-1,-1,-1,-1,-1,-1,-1,-1,-1,-1,-1],"split_conditions":[4E-1,5.9978734E-3,5.1969215E-3,6E0,4.834329E-2,9.861E1,4.95E-1,7.143E1,1.5994312E-3,3.8E-1,5.4E-1,5.1979464E-3,5.607E1,1.0357814E-2,-2.6664598E-2,-4.7188867E-2,-9.094403E-3,-2.6550556E-2,1.240706E-2,1.3042653E-3,-1.6632881E-2,-4.3637723E-2,3.8444202E-2,-4.7981605E-2,-2.162847E-2],"split_indices":[0,6,6,10,0,3,0,4,6,1,1,6,3,0,0,0,0,0,0,0,0,0,0,0,0],"split_type":[0,0,0,0,0,0,0,0,0,0,0,0,0,0,0,0,0,0,0,0,0,0,0,0,0],"sum_hessian":[6.319755E2,3.1633198E1,6.0034235E2,2.9794817E1,1.8383809E0,5.112835E2,8.905884E1,1.1640192E1,1.8154625E1,1.6476904E2,3.4651447E2,2.4758072E1,6.4300766E1,4.567532E0,7.0726604E0,1.3550701E1,4.603924E0,8.774417E0,1.5599463E2,3.0941797E2,3.7096478E1,1.5429155E0,2.3215157E1,1.1911172E1,5.2389595E1],"tree_param":{"num_deleted":"0","num_feature":"12","num_nodes":"25","size_leaf_vector":"1"}},{"base_weights":[2.275454E-2,-1.3092467E-1,1.2552606E-1,-7.638322E-2,-3.881268E-1,2.0906985E-1,-8.217324E-2,2.6095468E-1,-1.2188255E-1,-9.991155E-1,-2.5511456E-1,-8.998487E-2,2.7691427E-1,3.795568E-2,-5.3454816E-1,4.4715818E-2,3.116421E-4,-4.2398614E-3,-2.7111767E-2,-1.4629987E-3,-5.9866827E-2,-3.0174816E-2,4.565443E-3,4.1695252E-2,-1.4328732E-2,2.317762E-2,7.856024E-3,1.7843531E-2,-1.3109078E-2,-6.443316E-2,2.1175532E-2],"categories":[],"categories_nodes":[],"categories_segments":[],"categories_sizes":[],"default_left":[0,0,0,0,0,0,0,0,0,0,0,0,0,0,0,0,0,0,0,0,0,0,0,0,0,0,0,0,0,0,0],"id":37,"left_children":[1,3,5,7,9,11,13,15,17,19,21,23,25,27,29,-1,-1,-1,-1,-1,-1,-1,-1,-1,-1,-1,-1,-1,-1,-1,-1],"loss_changes":[9.88422E0,3.4896035E0,6.5227294E0,3.2277598E0,3.2921972E0,5.4553814E0,5.9036937E0,4.0382347E0,2.824852E0,1.3991513E0,4.5430026E0,9.365252E0,4.8103046E0,8.371307E0,1.7006416E1,0E0,0E0,0E0,0E0,0E0,0E0,0E0,0E0,0E0,0E0,0E0,0E0,0E0,0E0,0E0,0E0],"parents":[2147483647,0,0,1,1,2,2,3,3,4,4,5,5,6,6,7,7,8,8,9,9,10,10,11,11,12,12,13,13,14,14],"right_children":[2,4,6,8,10,12,14,16,18,20,22,24,26,28,30,-1,-1,-1,-1,-1,-1,-1,-1,-1,-1,-1,-1,-1,-1,-1,-1],"split_conditions":[9.0495184E-2,5E0,1.5591933E-1,-4.797128E-3,-6.6790897E-1,4.6E-1,5.4E-1,4.9E-1,5.7E-1,-5.1827077E-4,6.5351635E-2,-4.3974244E-3,-9.422548E-3,1.9669982E-4,3.9982345E-4,4.4715818E-2,3.116421E-4,-4.2398614E-3,-2.7111767E-2,-1.4629987E-3,-5.9866827E-2,-3.0174816E-2,4.565443E-3,4.1695252E-2,-1.4328732E-2,2.317762E-2,7.856024E-3,1.7843531E-2,-1.3109078E-2,-6.443316E-2,2.1175532E-2],"split_indices":[8,11,8,6,5,1,1,1,0,6,8,6,5,6,6,0,0,0,0,0,0,0,0,0,0,0,0,0,0,0,0],"split_type":[0,0,0,0,0,0,0,0,0,0,0,0,0,0,0,0,0,0,0,0,0,0,0,0,0,0,0,0,0,0,0],"sum_hessian":[6.2378674E2,2.4987003E2,3.739167E2,2.0722379E2,4.264624E1,2.6665308E2,1.0726363E2,2.406529E1,1.8315851E2,6.460165E0,3.6186073E1,4.9247265E1,2.174058E2,8.548029E1,2.178334E1,6.1822577E0,1.7883034E1,1.6941382E2,1.3744685E1,1.2910297E0,5.169135E0,1.7672047E1,1.8514027E1,8.071715E0,4.117555E1,8.386888E1,1.3353691E2,4.1352062E1,4.412823E1,1.199593E1,9.787411E0],"tree_param":{"num_deleted":"0","num_feature":"12","num_nodes":"31","size_leaf_vector":"1"}},{"base_weights":[2.9890822E-2,-7.192094E-2,1.5728778E-1,-1.2677006E-2,-3.4779343E-1,2.448775E-1,-1.6978583E-1,-1.032604E-1,2.241977E-1,-5.3889376E-1,-3.6021054E-2,4.6010628E-1,1.026343E-1,-3.719127E-1,1.1462583E-1,-1.1530506E-2,3.6306442E-3,1.7305525E-3,3.2736253E-2,-5.6042084E-3,-3.5532195E-2,-4.563291E-2,8.524434E-3,2.341332E-3,5.6731727E-2,3.0696828E-2,-1.5181037E-2,-2.7777893E-2,1.7301628E-2,3.255849E-2,-1.4762491E-2],"categories":[],"categories_nodes":[],"categories_segments":[],"categories_sizes":[],"default_left":[0,0,0,0,0,0,0,0,0,0,0,0,0,0,0,0,0,0,0,0,0,0,0,0,0,0,0,0,0,0,0],"id":38,"left_children":[1,3,5,7,9,11,13,15,17,19,21,23,25,27,29,-1,-1,-1,-1,-1,-1,-1,-1,-1,-1,-1,-1,-1,-1,-1,-1],"loss_changes":[8.113077E0,5.680983E0,7.999119E0,6.1899414E0,3.6423335E0,6.6728363E0,3.449525E0,4.688506E0,6.492311E0,2.7082825E0,4.577774E0,2.4215467E1,2.790588E1,4.7909036E0,5.7747755E0,0E0,0E0,0E0,0E0,0E0,0E0,0E0,0E0,0E0,0E0,0E0,0E0,0E0,0E0,0E0,0E0],"parents":[2147483647,0,0,1,1,2,2,3,3,4,4,5,5,6,6,7,7,8,8,9,9,10,10,11,11,12,12,13,13,14,14],"right_children":[2,4,6,8,10,12,14,16,18,20,22,24,26,28,30,-1,-1,-1,-1,-1,-1,-1,-1,-1,-1,-1,-1,-1,-1,-1,-1],"split_conditions":[1.081731E-1,5E0,1.7764732E-1,2.982E2,5.273975E-4,4.95E-1,1.2667136E-3,1.4974E2,8.713631E-2,2.964E2,-6.7540354E-1,9.998913E-4,-1.7737158E-4,2.988E2,5.3153515E-1,-1.1530506E-2,3.6306442E-3,1.7305525E-3,3.2736253E-2,-5.6042084E-3,-3.5532195E-2,-4.563291E-2,8.524434E-3,2.341332E-3,5.6731727E-2,3.0696828E-2,-1.5181037E-2,-2.7777893E-2,1.7301628E-2,3.255849E-2,-1.4762491E-2],"split_indices":[8,11,8,9,6,0,5,4,8,9,5,6,6,9,5,0,0,0,0,0,0,0,0,0,0,0,0,0,0,0,0],"split_type":[0,0,0,0,0,0,0,0,0,0,0,0,0,0,0,0,0,0,0,0,0,0,0,0,0,0,0,0,0,0,0],"sum_hessian":[6.236297E2,3.468629E2,2.767668E2,2.864034E2,6.045951E1,2.1850333E2,5.8263485E1,2.0758484E2,7.8818565E1,3.70322E1,2.3427309E1,8.605638E1,1.3244693E2,3.3878742E1,2.438474E1,1.2022139E2,8.736345E1,5.5471554E1,2.3347012E1,1.110018E1,2.5932022E1,3.8146431E0,1.9612665E1,5.4024994E1,3.203139E1,5.8415485E1,7.403145E1,2.7158087E1,6.720657E0,1.0305595E1,1.4079145E1],"tree_param":{"num_deleted":"0","num_feature":"12","num_nodes":"31","size_leaf_vector":"1"}},{"base_weights":[-1.9956006E-2,-2.7419975E-1,4.003656E-2,-4.7423854E-1,-1.4692698E-1,6.914284E-2,-3.0823618E-1,2.2304537E-2,-6.6694486E-1,6.3667583E-1,-2.7247655E-1,8.227344E-2,-7.6961225E-1,3.3803966E-2,-5.2288467E-1,1.6352965E-2,-3.424756E-2,2.742568E-2,-4.0066037E-2,5.514828E-2,-7.419982E-3,-2.0512877E-2,4.0692533E-3,6.3935057E-3,-7.971341E-3,-4.7870632E-2,-4.5172015E-4,-3.6608577E-2,1.1525246E-2,-4.7461018E-2,-1.0630684E-2],"categories":[],"categories_nodes":[],"categories_segments":[],"categories_sizes":[],"default_left":[0,0,0,0,0,0,0,0,0,0,0,0,0,0,0,0,0,0,0,0,0,0,0,0,0,0,0,0,0,0,0],"id":39,"left_children":[1,3,5,7,9,11,13,15,17,19,21,23,25,27,29,-1,-1,-1,-1,-1,-1,-1,-1,-1,-1,-1,-1,-1,-1,-1,-1],"loss_changes":[9.338378E0,2.905941E0,5.045643E0,4.3205767E0,7.343374E0,5.1100283E0,2.837762E0,3.1442573E0,5.739415E0,3.9576292E0,3.130085E0,5.002589E0,1.0140076E0,2.541775E0,2.9280872E0,0E0,0E0,0E0,0E0,0E0,0E0,0E0,0E0,0E0,0E0,0E0,0E0,0E0,0E0,0E0,0E0],"parents":[2147483647,0,0,1,1,2,2,3,3,4,4,5,5,6,6,7,7,8,8,9,9,10,10,11,11,12,12,13,13,14,14],"right_children":[2,4,6,8,10,12,14,16,18,20,22,24,26,28,30,-1,-1,-1,-1,-1,-1,-1,-1,-1,-1,-1,-1,-1,-1,-1,-1],"split_conditions":[6.751007E-2,-1.1995607E-3,1.9286019E-1,-4.7944426E-3,-3.9983986E-4,6.5E-1,8.85E1,5.2E-1,-6.588869E-1,5.2E-1,1.8E1,5.1969215E-3,8.352802E-1,4.2E-1,2.0719929E-1,1.6352965E-2,-3.424756E-2,2.742568E-2,-4.0066037E-2,5.514828E-2,-7.419982E-3,-2.0512877E-2,4.0692533E-3,6.3935057E-3,-7.971341E-3,-4.7870632E-2,-4.5172015E-4,-3.6608577E-2,1.1525246E-2,-4.7461018E-2,-1.0630684E-2],"split_indices":[8,6,8,6,6,0,4,1,5,0,10,6,5,0,8,0,0,0,0,0,0,0,0,0,0,0,0,0,0,0,0],"split_type":[0,0,0,0,0,0,0,0,0,0,0,0,0,0,0,0,0,0,0,0,0,0,0,0,0,0,0,0,0,0,0],"sum_hessian":[6.105231E2,1.1587661E2,4.9464645E2,4.3997746E1,7.187886E1,4.572353E2,3.7411163E1,1.25485E1,3.1449247E1,9.363924E0,6.251494E1,4.5107568E2,6.1596217E0,1.4749886E1,2.2661276E1,9.145355E0,3.403145E0,2.823963E0,2.8625284E1,5.6206584E0,3.743265E0,4.4880653E1,1.7634285E1,3.7988202E2,7.119366E1,4.7323284E0,1.4272934E0,2.4575713E0,1.2292314E1,8.677884E0,1.3983393E1],"tree_param":{"num_deleted":"0","num_feature":"12","num_nodes":"31","size_leaf_vector":"1"}},{"base_weights":[-2.3801235E-2,-1.8574093E-1,5.7009786E-2,-2.0657253E-1,8.5236764E-1,9.891453E-2,-3.1348494E-1,1.03473626E-1,-2.562564E-1,-1.8166321E-3,6.912757E-2,1.4617394E-1,-2.842864E-1,1.1674954E0,-8.08678E-1,-2.161303E-2,2.05405E-2,-1.1919579E-2,-5.3612955E-2,-2.2705265E-3,1.0569275E-2,-2.951589E-2,2.853326E-2,6.1652213E-2,1.3800514E-2,-5.3014603E-2,-2.7525514E-2],"categories":[],"categories_nodes":[],"categories_segments":[],"categories_sizes":[],"default_left":[0,0,0,0,0,0,0,0,0,0,0,0,0,0,0,0,0,0,0,0,0,0,0,0,0,0,0],"id":40,"left_children":[1,3,5,7,9,11,13,15,17,-1,-1,19,21,23,25,-1,-1,-1,-1,-1,-1,-1,-1,-1,-1,-1,-1],"loss_changes":[8.179278E0,4.674849E0,6.5078545E0,3.1804514E0,2.0703878E0,6.842627E0,3.220764E1,4.95087E0,2.3210535E0,0E0,0E0,4.194621E0,1.1213327E1,3.0780697E-1,1.5299454E0,0E0,0E0,0E0,0E0,0E0,0E0,0E0,0E0,0E0,0E0,0E0,0E0],"parents":[2147483647,0,0,1,1,2,2,3,3,4,4,5,5,6,6,7,7,8,8,11,11,12,12,13,13,14,14],"right_children":[2,4,6,8,10,12,14,16,18,-1,-1,20,22,24,26,-1,-1,-1,-1,-1,-1,-1,-1,-1,-1,-1,-1],"split_conditions":[8.316881E-2,7.6712E2,6.797464E-3,2.952E2,1E1,5.6E-1,4.95E-1,4.8E-1,8.286827E-2,-1.8166321E-3,6.912757E-2,-3.5987461E-3,1.9990338E-3,8.2523876E-1,1.2964827E-1,-2.161303E-2,2.05405E-2,-1.1919579E-2,-5.3612955E-2,-2.2705265E-3,1.0569275E-2,-2.951589E-2,2.853326E-2,6.1652213E-2,1.3800514E-2,-5.3014603E-2,-2.7525514E-2],"split_indices":[8,3,6,9,10,1,0,1,8,0,0,6,6,5,8,0,0,0,0,0,0,0,0,0,0,0,0],"split_type":[0,0,0,0,0,0,0,0,0,0,0,0,0,0,0,0,0,0,0,0,0,0,0,0,0,0,0],"sum_hessian":[6.2320667E2,2.0703145E2,4.161752E2,2.0374396E2,3.2874923E0,3.7454535E2,4.162986E1,2.7990438E1,1.7575352E2,1.5764685E0,1.7110239E0,3.3397534E2,4.056998E1,1.009148E1,3.153838E1,1.005557E1,1.7934868E1,1.7325262E2,2.5008943E0,8.488782E1,2.4908754E2,3.0103804E1,1.0466179E1,9.043405E0,1.0480763E0,1.439845E1,1.713993E1],"tree_param":{"num_deleted":"0","num_feature":"12","num_nodes":"27","size_leaf_vector":"1"}}]},"name":"gbtree"},"learner_model_param":{"base_score":"[5E-1]","boost_from_average":"1","num_class":"0","num_feature":"12","num_target":"1"},"objective":{"name":"binary:logistic","reg_loss_param":{"scale_pos_weight":"0.577669919"}}},"version":[3,2,0]}